svm_type epsilon_svr
kernel_type rbf
gamma 0.05
nr_class 2
total_sv 186
rho -5.80777
probA 15.631
SV
1024 1:-0.37804 2:-0.269579 3:-0.182823 4:0.460084 5:-0.923847 6:0.129651 7:-0.18519 8:-0.581611 9:-0.122507 10:-0.788533 11:-0.196392 12:-0.218804 13:-0.282539 14:-0.686574 15:-0.191397 16:-0.287877 17:-0.355518 18:-0.632085 19:-0.505143 20:-0.247018 21:-0.272191 22:0.543087 23:-0.929491 24:0.0246149 25:-0.224214 26:-0.361828 27:-0.186179 28:-0.788993 29:-0.246788 30:-0.486375 31:-0.25868 32:-0.747479 33:-0.262645 34:-0.246575 35:-0.256153 36:-0.712179 
1024 1:-0.162073 2:-0.123559 3:0.0134959 4:-0.12354 5:-0.515009 6:-0.231043 7:-0.0707131 8:0.321289 9:-0.486889 10:-0.399124 11:-0.0135486 12:0.484646 13:-0.451038 14:-0.417896 15:-0.0101971 16:0.445283 17:-0.471811 18:-0.40144 19:-0.259541 20:0.0250872 21:-0.118654 22:-0.168792 23:-0.410642 24:-0.350021 25:-0.105169 26:0.381563 27:-0.277362 28:-0.259594 29:-0.0921813 30:0.485601 31:-0.325537 32:-0.300495 33:-0.076324 34:0.338227 35:-0.286062 36:-0.37066 
1024 1:-0.42181 2:-0.759421 3:-0.283435 4:-0.384411 5:-0.894879 6:-0.858898 7:-0.34007 8:0.256922 9:-0.957945 10:-0.870605 11:-0.295713 12:0.755833 13:-0.955993 14:-0.862425 15:-0.28426 16:0.829794 17:-0.946843 18:-0.861747 19:-0.425724 20:-0.549411 21:-0.260227 22:0.0248891 23:-0.872766 24:-0.658768 25:-0.218262 26:0.766173 27:-0.868633 28:-0.700461 29:-0.211109 30:0.727252 31:-0.833763 32:-0.777871 33:-0.187325 34:0.777725 35:-0.857615 36:-0.768922 
1024 1:-0.159769 2:-0.182626 3:-0.0208579 4:0.153115 5:-0.694098 6:-0.0292465 7:-0.0325535 8:-0.30433 9:-0.174017 10:-0.638478 11:-0.00226187 12:-0.126007 13:-0.265405 14:-0.602289 15:-0.00566708 16:-0.0507924 17:-0.379931 18:-0.532576 19:-0.1177 20:-0.0815715 21:0.00896112 22:0.217849 23:-0.692498 24:-0.131434 25:0.0158611 26:-0.0548166 27:-0.149591 28:-0.504336 29:0.0307106 30:-0.109595 31:-0.22975 32:-0.515315 33:0.0465678 34:-0.0225541 35:-0.245446 36:-0.54179 
-1024 1:-0.295109 2:-0.562547 3:-0.177915 4:-0.0352577 5:-0.907573 6:-0.555106 7:-0.21886 8:-0.0539694 9:-0.742036 10:-0.84124 11:-0.207679 12:0.599316 13:-0.812949 14:-0.751758 15:-0.193662 16:0.336063 17:-0.775119 18:-0.798974 19:-0.37844 20:-0.445585 21:-0.190437 22:0.223063 23:-0.912307 24:-0.492202 25:-0.184534 26:0.213916 27:-0.64585 28:-0.788375 29:-0.232913 30:0.581896 31:-0.712831 32:-0.695341 33:-0.20318 34:0.197917 35:-0.645034 36:-0.800658 
-1024 1:-0.595733 2:-0.311948 3:-0.381596 4:0.00986944 5:-0.720299 6:-0.142634 7:-0.427613 8:-0.197689 9:-0.287575 10:-0.65158 11:-0.428897 12:0.143241 13:-0.332717 14:-0.55246 15:-0.413366 16:0.120823 17:-0.418368 18:-0.5343 19:-0.626796 20:-0.326445 21:-0.441681 22:-0.0406713 23:-0.655044 24:-0.401191 25:-0.41072 26:-0.0761878 27:-0.247523 28:-0.685045 29:-0.446984 30:0.204824 31:-0.396723 32:-0.574122 33:-0.450948 34:0.164487 35:-0.366319 36:-0.606472 
-481.0601887035698 1:0.948174 2:0.394579 3:0.977914 4:0.792685 5:-0.614544 6:0.860366 7:0.946125 8:-1 9:0.685913 10:-0.594665 11:0.939049 12:-1 13:0.476999 14:-0.4498 15:0.938842 16:-0.729429 17:0.194045 18:-0.228381 19:0.487281 20:0.360281 21:0.627101 22:0.580988 23:-0.660058 24:0.438971 25:0.628952 26:-0.677286 27:0.349174 28:-0.498096 29:0.627336 30:-0.536188 31:0.150348 32:-0.337452 33:0.607513 34:-0.340351 35:0.165435 36:-0.324017 
-1024 1:-0.543327 2:-0.426953 3:-0.388955 4:0.0577309 5:-0.818197 6:-0.203842 7:-0.432102 8:-0.334701 9:-0.38217 10:-0.794892 11:-0.433409 12:-0.0615117 13:-0.418393 14:-0.741574 15:-0.426956 16:0.303812 17:-0.571542 18:-0.605493 19:-0.627715 20:-0.415517 21:-0.447663 22:0.17837 23:-0.861713 24:-0.36734 25:-0.472228 26:-0.294851 27:-0.265178 28:-0.860819 29:-0.484645 30:-0.172169 31:-0.388318 32:-0.761376 33:-0.484645 34:0.132672 35:-0.453821 36:-0.706898 
1024 1:-0.68845 2:-0.376702 3:-0.541104 4:0.0244674 5:-0.767126 6:-0.0775361 7:-0.551068 8:-0.474993 9:-0.0839118 10:-0.761213 11:-0.56885 12:-0.05861 13:-0.224272 14:-0.630823 15:-0.547 16:-0.415376 17:-0.206213 18:-0.649131 19:-0.72228 20:-0.470151 21:-0.597212 22:0.0573615 23:-0.803818 24:-0.401751 25:-0.597226 26:-0.106314 27:-0.297103 28:-0.80476 29:-0.611501 30:0.0873237 31:-0.436855 32:-0.710895 33:-0.605554 34:0.0725905 35:-0.401614 36:-0.729521 
1024 1:-0.501861 2:-0.384517 3:-0.359509 4:0.0884917 5:-0.814913 6:-0.164769 7:-0.387209 8:-0.343955 9:-0.314558 10:-0.7622 11:-0.404066 12:0.107023 13:-0.420498 14:-0.645486 15:-0.397511 16:-0.00521943 17:-0.453562 18:-0.627826 19:-0.572626 20:-0.367731 21:-0.401801 22:0.113581 23:-0.781815 24:-0.345503 25:-0.398815 26:-0.0464346 27:-0.334681 28:-0.727574 29:-0.429144 30:0.109617 31:-0.427173 32:-0.648826 33:-0.433109 34:0.150383 35:-0.416578 36:-0.655533 
-669.8489763371142 1:-0.502437 2:-0.397232 3:-0.357055 4:-0.0767636 5:-0.697351 6:-0.263933 7:-0.393943 8:-0.101527 9:-0.489926 10:-0.705865 11:-0.388264 12:0.352388 13:-0.553228 14:-0.616452 15:-0.379391 16:0.409484 17:-0.595997 18:-0.578554 19:-0.686934 20:-0.333222 21:-0.495519 22:-0.0595554 23:-0.627306 24:-0.384142 25:-0.482149 26:-0.0314719 27:-0.283312 28:-0.699018 29:-0.496538 30:0.171025 31:-0.390952 32:-0.596973 33:-0.496538 34:0.20479 35:-0.383068 36:-0.604841 
1024 1:-0.610707 2:-0.54121 3:-0.457668 4:-0.00979035 5:-0.882121 6:-0.37838 7:-0.468015 8:-0.277575 9:-0.550319 10:-0.850666 11:-0.462755 12:0.164352 13:-0.629164 14:-0.792203 15:-0.449604 16:0.0429672 17:-0.6376 18:-0.784991 19:-0.666276 20:-0.54503 21:-0.513464 22:0.202827 23:-0.927961 24:-0.444283 25:-0.496038 26:-0.104513 27:-0.50103 28:-0.901577 29:-0.514375 30:-0.0745397 31:-0.570789 32:-0.859913 33:-0.510413 34:-0.0959376 35:-0.538651 36:-0.883691 
-1024 1:-0.65217 2:-0.557179 3:-0.504294 4:-0.279565 5:-0.71241 6:-0.527236 7:-0.481483 8:-0.259288 9:-0.546622 10:-0.839852 11:-0.440181 12:0.0974484 13:-0.628855 14:-0.820253 15:-0.440544 16:-0.0114289 17:-0.645549 18:-0.810511 19:-0.677753 20:-0.538466 21:-0.583254 22:-0.0761833 23:-0.770167 24:-0.581846 25:-0.507942 26:0.0288669 27:-0.514651 28:-0.838114 29:-0.510413 30:0.0165071 31:-0.587411 32:-0.837452 33:-0.510413 34:0.0580799 35:-0.57982 36:-0.846868 
-571.9827513336655 1:-0.423537 2:-0.333131 3:-0.165645 4:0.335747 5:-0.912494 6:-0.0603376 7:-0.207636 8:-0.449268 9:-0.276474 10:-0.788533 11:-0.191877 12:-0.0868753 13:-0.390274 14:-0.698509 15:-0.202722 16:-0.149352 17:-0.455368 18:-0.665213 19:-0.43261 20:-0.265376 21:-0.140588 22:0.619812 23:-0.954143 24:0.00388473 25:-0.0932639 26:-0.264639 27:-0.302045 28:-0.785258 29:-0.0981278 30:-0.477493 31:-0.345172 32:-0.779697 33:-0.10011 34:-0.36518 35:-0.32659 36:-0.788939 
603.6247832737007 1:0.0803775 2:-0.0220969 3:0.305521 4:0.394806 5:-0.739805 6:0.172368 7:0.248029 8:-0.314842 9:-0.124532 10:-0.60636 11:0.255074 12:0.0193604 13:-0.233552 14:-0.476149 15:0.241218 16:-0.123674 17:-0.271818 18:-0.438943 19:-0.0286512 20:0.0611769 21:0.196397 22:0.409071 23:-0.730849 24:0.0814058 25:0.216256 26:-0.170528 27:-0.0901313 28:-0.517107 29:0.185317 30:-0.095409 31:-0.170882 32:-0.439222 33:0.205139 34:-0.0240647 35:-0.165533 36:-0.457486 
1024 1:-0.45694 2:0.116057 3:-0.0846623 4:0.206433 5:-0.429351 6:0.435002 7:-0.11336 8:-0.331957 9:0.218106 10:-0.443144 11:-0.11287 12:-0.0484951 13:0.0803152 14:-0.283015 15:-0.0962657 16:-0.363736 17:0.0562393 18:-0.279162 19:-0.529933 20:0.0663838 21:-0.262221 22:0.0631327 23:-0.399965 24:0.086189 25:-0.156756 26:-0.552978 27:0.33757 28:-0.557077 29:-0.205162 30:-0.280788 31:0.0607696 32:-0.387299 33:-0.195254 34:-0.333856 35:0.157577 36:-0.436801 
-1024 1:-0.149979 2:-0.315354 3:-0.035582 4:-0.117281 5:-0.662933 6:-0.368534 7:-0.120094 8:0.16146 9:-0.607076 10:-0.617452 11:-0.0451515 12:0.400343 13:-0.599846 14:-0.621573 15:-0.0419074 16:0.491062 17:-0.639594 18:-0.58217 19:-0.144323 20:-0.144007 21:-0.0329113 22:0.1183 23:-0.686372 24:-0.272361 25:-0.0258056 26:0.446258 27:-0.471862 28:-0.423772 29:0.0564786 30:0.305179 31:-0.483941 32:-0.560063 33:0.0445857 34:0.302616 35:-0.46029 36:-0.561533 
-1024 1:-0.316417 2:-0.735749 3:-0.310429 4:-0.248482 5:-0.92919 6:-0.782077 7:-0.355783 8:0.080559 9:-0.886706 10:-0.882465 11:-0.282169 12:0.551937 13:-0.908719 14:-0.878239 15:-0.28426 16:0.602009 17:-0.90902 18:-0.874123 19:-0.390835 20:-0.606549 21:-0.336 22:0.0577278 23:-0.925021 24:-0.700372 25:-0.307548 26:0.540405 27:-0.827267 28:-0.789406 29:-0.30427 30:0.543353 31:-0.823295 32:-0.834039 33:-0.284449 34:0.427745 35:-0.806338 36:-0.858097 
-1024 1:-0.382071 2:-0.0461999 3:-0.146013 4:0.231601 5:-0.625707 6:0.252073 7:-0.189679 8:-0.0918961 9:-0.118713 10:-0.455714 11:-0.191877 12:-0.0422335 13:-0.0601713 14:-0.409088 15:-0.193662 16:0.208959 17:-0.224999 18:-0.254624 19:-0.510193 20:-0.0381434 21:-0.298114 22:0.0107475 23:-0.479195 24:-0.110548 25:-0.275802 26:-0.194748 27:0.0348702 28:-0.5206 29:-0.292377 30:-0.0688654 31:-0.0842028 32:-0.410132 33:-0.310217 34:0.278655 35:-0.156057 36:-0.304542 
803.6884762125203 1:-0.126942 2:0.0489696 3:0.121473 4:-0.401647 5:-0.0303251 6:-0.213526 7:0.00336141 8:0.450895 9:-0.299715 10:-0.123905 11:0.0180543 12:1 13:-0.378988 14:0.0442986 15:0.0645486 16:-0.508851 17:-9.76256e-05 18:-0.381367 19:-0.267345 20:0.0640426 21:-0.0349053 22:-0.533111 23:0.00926573 24:-0.48741 25:-0.12501 26:0.576007 27:-0.169801 28:0.0837477 29:-0.169485 30:1 31:-0.264044 32:0.126347 33:-0.0465936 34:0.0368758 35:-0.0536239 36:-0.342979 
1024 1:-0.591702 2:-0.734833 3:-0.51411 4:-0.275994 5:-0.899525 6:-0.732332 7:-0.546579 8:-0.160729 9:-0.75731 10:-0.906647 11:-0.548534 12:0.517469 13:-0.854979 14:-0.835943 15:-0.50623 16:0.147292 17:-0.794094 18:-0.894491 19:-0.61991 20:-0.691196 21:-0.547362 22:-0.0540843 23:-0.896598 24:-0.745665 25:-0.517861 26:0.222205 27:-0.740966 28:-0.900776 29:-0.544107 30:0.615034 31:-0.846276 32:-0.842667 33:-0.518339 34:0.253637 35:-0.771187 36:-0.910186 
1024 1:-0.196052 2:-0.284088 3:-0.04049 4:0.00816333 5:-0.720194 6:-0.269304 7:-0.111115 8:-0.0519331 9:-0.445855 10:-0.641823 11:-0.0812669 12:0.206715 13:-0.482695 14:-0.613874 15:-0.0781455 16:0.396637 17:-0.567881 18:-0.539398 19:-0.198028 20:-0.177116 21:-0.0568395 22:0.0878465 23:-0.702925 24:-0.339534 25:-0.0436627 26:0.281216 27:-0.42538 28:-0.509867 29:-0.0505559 30:0.28385 31:-0.447118 32:-0.538788 33:-0.0743418 34:0.485589 35:-0.480301 36:-0.48243 
-1024 1:-0.552541 2:-0.636283 3:-0.315337 4:-0.073696 5:-0.9371 6:-0.61421 7:-0.326602 8:-0.196148 9:-0.733831 10:-0.90215 11:-0.325059 12:0.298912 13:-0.784566 14:-0.852816 15:-0.327296 16:0.41677 17:-0.813249 18:-0.818842 19:-0.629551 20:-0.587406 21:-0.415759 22:0.225358 23:-0.95825 24:-0.534574 25:-0.406752 26:-0.0862921 27:-0.610512 28:-0.940928 29:-0.417251 30:-0.284489 31:-0.619728 32:-0.9386 33:-0.413287 34:-0.0310509 35:-0.648129 36:-0.912428 
1024 1:-0.389558 2:-0.124597 3:-0.207361 4:-0.374124 5:-0.10934 6:-0.202764 7:-0.3064 8:0.0637341 9:-0.21329 10:-0.385497 11:-0.295713 12:0.230951 13:-0.181789 14:-0.337173 15:-0.286525 16:-0.0469749 17:-0.181109 18:-0.365714 19:-0.435823 20:-0.136564 21:-0.242281 22:-0.346694 23:-0.278898 24:-0.480409 25:-0.283738 26:0.187737 27:-0.247386 28:-0.433378 29:-0.32211 30:0.605928 31:-0.368154 32:-0.287116 33:-0.290395 34:0.367682 35:-0.325912 36:-0.409953 
-1024 1:-0.320449 2:-0.0247118 3:-0.033128 4:-0.418878 5:-0.00155771 6:-0.20557 7:-0.129073 8:0.466887 9:-0.381448 10:-0.164439 11:-0.10384 12:0.360424 13:-0.201616 14:-0.246849 15:-0.0917356 16:0.274634 17:-0.246651 18:-0.233453 19:-0.475303 20:-0.0492508 21:-0.184457 22:-0.452801 23:0.0238949 24:-0.376602 25:-0.257944 26:0.593904 27:-0.27446 28:-0.0334445 29:-0.246788 30:0.509779 31:-0.2308 32:-0.186736 33:-0.238859 34:0.360507 35:-0.180576 36:-0.258993 
1024 1:-0.524898 2:-0.695066 3:-0.568098 4:0.00540079 5:-0.977052 6:-0.487104 7:-0.539845 8:-0.176131 9:-0.713134 10:-0.889113 11:-0.541762 12:0.37223 13:-0.771763 14:-0.821805 15:-0.540205 16:0.281477 17:-0.768606 18:-0.830405 19:-0.635978 20:-0.620478 21:-0.56132 22:0.281414 23:-0.983234 24:-0.450035 25:-0.549607 26:0.0899951 27:-0.594198 28:-0.868338 29:-0.579786 30:0.259706 31:-0.669128 32:-0.818636 33:-0.577804 34:0.13219 35:-0.628574 36:-0.862095 
-74.00192149336263 1:-0.0428591 2:0.0858501 3:0.266257 4:0.606561 5:-0.761771 6:0.50051 7:0.24354 8:-0.497816 9:0.132834 10:-0.584678 11:0.237015 12:-0.140246 13:-0.0540905 14:-0.418105 15:0.236688 16:-0.44674 17:-0.0707507 18:-0.395208 19:-0.173241 20:0.124905 21:0.134582 22:0.480948 23:-0.725903 24:0.238423 25:0.148796 26:-0.516852 27:0.205796 28:-0.55208 29:0.113959 30:-0.493485 31:0.0687816 32:-0.439867 33:0.0881932 34:-0.264928 35:0.092795 36:-0.392935 
1024 1:0.0631021 2:0.200454 3:0.285889 4:0.219433 5:-0.370338 6:0.393318 7:0.200891 8:-0.226802 9:0.122859 10:-0.401476 11:0.214442 12:0.085865 13:0.0106642 14:-0.217923 15:0.220833 16:-0.353694 17:0.0304452 18:-0.255473 19:-0.112192 20:0.198086 21:0.0269073 22:0.0330179 23:-0.347683 24:0.0416035 25:0.0912579 26:-0.274607 27:0.142723 28:-0.420321 29:0.0663894 30:0.1307 31:-0.0737987 32:-0.230356 33:0.060443 34:0.0112063 35:0.0028952 36:-0.295161 
-1024 1:-0.494951 2:-0.253626 3:-0.290797 4:-0.19688 5:-0.482102 6:-0.236765 7:-0.337826 8:0.0780038 9:-0.434455 10:-0.534813 11:-0.322801 12:0.28337 13:-0.404322 14:-0.512983 15:-0.318235 16:0.164115 17:-0.414163 18:-0.495984 19:-0.523047 20:-0.19 21:-0.310078 22:-0.170308 23:-0.449488 24:-0.382601 25:-0.321437 26:0.0199754 27:-0.194534 28:-0.540837 29:-0.324092 30:0.109348 31:-0.308916 32:-0.522403 33:-0.339949 34:0.141244 35:-0.265489 36:-0.510921 
65.53365563814566 1:-0.44427 2:-0.802942 3:-0.51411 4:-0.121314 5:-1 6:-0.740217 7:-0.479238 8:0.0064194 9:-0.896839 10:-0.920399 11:-0.471784 12:0.83835 13:-0.963515 14:-0.831347 15:-0.485845 16:0.472291 17:-0.896412 18:-0.898634 19:-0.562986 20:-0.674567 21:-0.459627 22:0.241281 23:-1 24:-0.634705 25:-0.458339 26:0.39949 27:-0.799157 28:-0.849042 29:-0.466805 30:0.903548 31:-0.880488 32:-0.767022 33:-0.476716 34:0.310518 35:-0.776642 36:-0.889052 
1024 1:0.015307 2:-0.137123 3:0.180369 4:0.223992 5:-0.710541 6:-0.00677418 7:0.135795 8:-0.387401 9:-0.147888 10:-0.667772 11:0.178324 12:-0.166349 13:-0.264326 14:-0.606192 15:0.175532 16:-0.249226 17:-0.337513 18:-0.561159 19:-0.00478259 20:-0.100951 21:0.0847338 22:0.2117 23:-0.717477 24:-0.197501 25:0.168637 26:-0.0204131 27:-0.28517 28:-0.582856 29:0.161531 30:-0.0746742 31:-0.335855 32:-0.582623 33:0.147656 34:-0.0249521 35:-0.313062 36:-0.592728 
1024 1:-0.360187 2:-0.496447 3:-0.217177 4:-0.231262 5:-0.756237 6:-0.57548 7:-0.279464 8:0.0761405 9:-0.704445 10:-0.742782 11:-0.209936 12:0.285484 13:-0.695231 14:-0.773953 15:-0.225372 16:0.767557 17:-0.791353 18:-0.661828 19:-0.405066 20:-0.408118 21:-0.272191 22:-0.0903834 23:-0.742329 24:-0.613046 25:-0.230167 26:0.314981 27:-0.622856 28:-0.7055 29:-0.24877 30:0.29115 31:-0.629073 32:-0.731182 33:-0.292377 34:0.708486 35:-0.7097 36:-0.618869 
1024 1:-0.277831 2:-0.291586 3:-0.0797543 4:0.475948 5:-0.943764 6:0.0373976 7:-0.0437769 8:-0.470535 9:-0.257062 10:-0.778859 11:-0.0428942 12:-0.0254223 13:-0.424866 14:-0.680335 15:-0.0373774 16:-0.198425 17:-0.448841 18:-0.661355 19:-0.283872 20:-0.206916 21:-0.0648156 22:0.628962 23:-0.940031 24:0.0349279 25:0.045623 26:-0.232051 27:-0.254358 28:-0.712377 29:0.0168355 30:-0.468332 31:-0.290121 32:-0.722559 33:0.00692467 34:-0.254921 35:-0.289701 36:-0.701047 
472.1808471091379 1:-0.782894 2:-0.796825 3:-0.698159 4:-0.449187 5:-0.835485 6:-0.81559 7:-0.679013 8:-0.202327 9:-0.776722 10:-0.942884 11:-0.668172 12:0.339055 13:-0.850483 14:-0.914205 15:-0.662514 16:0.294941 17:-0.850124 18:-0.914903 19:-0.791136 20:-0.744906 21:-0.653045 22:-0.0818649 23:-0.923864 24:-0.802378 25:-0.613099 26:0.154209 27:-0.732639 28:-0.94359 29:-0.623394 30:0.336612 31:-0.817748 32:-0.920796 33:-0.631322 34:0.262559 35:-0.787233 36:-0.932906 
1024 1:-0.45982 2:-0.222854 3:-0.298159 4:-0.537611 5:-0.0150966 6:-0.366104 7:-0.353538 8:0.411545 9:-0.467565 10:-0.257597 11:-0.365691 12:0.439922 13:-0.370892 14:-0.373372 15:-0.329561 16:0.139863 17:-0.349123 18:-0.441631 19:-0.613024 20:-0.264991 21:-0.411771 22:-0.454267 23:-0.200742 24:-0.581213 25:-0.484133 26:0.558547 27:-0.377452 28:-0.214172 29:-0.472752 30:0.561318 31:-0.414801 32:-0.381101 33:-0.446984 34:0.361999 35:-0.393482 36:-0.500924 
-1024 1:-0.222544 2:-0.147557 3:-0.04049 4:0.0071182 5:-0.536215 6:-0.0510694 7:-0.0954023 8:-0.147292 9:-0.235757 10:-0.571039 11:-0.0744971 12:0.00896361 13:-0.26874 14:-0.537447 15:-0.0668227 16:0.0773727 17:-0.359534 18:-0.458061 19:-0.314629 20:-0.137525 21:-0.150558 22:0.0189932 23:-0.584612 24:-0.263915 25:-0.109137 26:0.00871568 27:-0.266483 28:-0.576295 29:-0.137771 30:0.176688 31:-0.343812 32:-0.496285 33:-0.139753 34:0.313888 35:-0.371742 36:-0.47858 
-1024 1:-0.451181 2:-0.231121 3:-0.278527 4:-0.323313 5:-0.375692 6:-0.330168 7:-0.326602 8:0.383604 9:-0.542467 10:-0.361811 11:-0.320544 12:0.398792 13:-0.397238 14:-0.427939 15:-0.318235 16:0.423946 17:-0.436219 18:-0.381903 19:-0.497339 20:-0.16675 21:-0.31606 22:-0.359012 23:-0.286793 24:-0.508154 25:-0.333341 26:0.537412 27:-0.392689 28:-0.251346 29:-0.347878 30:0.324635 31:-0.31422 32:-0.407202 33:-0.335985 34:0.300681 35:-0.298043 36:-0.433659 
1024 1:-0.309507 2:-0.17912 3:-0.111656 4:-0.659631 5:0.164151 6:-0.418206 7:-0.259262 8:0.284808 9:-0.406054 10:-0.340165 11:-0.203164 12:0.109396 13:-0.24502 14:-0.468959 15:-0.195927 16:-0.109782 17:-0.260075 18:-0.463133 19:-0.301775 20:-0.214806 21:-0.180469 22:-0.360119 23:-0.303768 24:-0.51851 25:-0.21231 26:0.497375 27:-0.464734 28:-0.376592 29:-0.163539 30:0.297127 31:-0.445397 32:-0.538899 33:-0.163539 34:0.352294 35:-0.447315 36:-0.53315 
-454.3761144604085 1:-0.676356 2:-0.102966 3:-0.37178 4:-1 5:1 6:-0.480077 7:-0.499441 8:0.510348 9:-0.380084 10:-0.0120377 11:-0.485328 12:0.152417 13:0.0672783 14:-0.201141 15:-0.467725 16:-0.674542 17:0.250563 18:-0.397806 19:-0.708509 20:-0.199899 21:-0.449657 22:-1 23:0.694245 24:-0.779716 25:-0.535718 26:0.447808 27:-0.258525 28:-0.207592 29:-0.557983 30:0.531298 31:-0.24367 32:-0.217669 33:-0.540143 34:0.171577 35:-0.116682 36:-0.398056 
-1024 1:-0.637197 2:-0.264094 3:-0.479754 4:-0.444402 5:-0.189655 6:-0.332461 7:-0.519643 8:0.132496 9:-0.25781 10:-0.334693 11:-0.530475 12:0.455429 13:-0.299152 14:-0.295026 15:-0.52435 16:0.172653 17:-0.254315 18:-0.353213 19:-0.714476 20:-0.293278 21:-0.523434 22:-0.539284 23:-0.105893 24:-0.652023 25:-0.59921 26:0.454532 27:-0.155532 28:-0.0867495 29:-0.583751 30:0.606567 31:-0.373422 32:-0.312403 33:-0.567893 34:0.374055 35:-0.300687 36:-0.418952 
1024 1:-0.291077 2:-0.0522414 3:-0.0625762 4:-0.225432 5:-0.270856 6:-0.134957 7:-0.158253 8:0.272072 9:-0.323705 10:-0.293509 11:-0.133186 12:0.384354 13:-0.250904 14:-0.280772 15:-0.139301 16:-0.132719 17:-0.162254 18:-0.371491 19:-0.330696 20:-0.00922627 21:-0.0727916 22:-0.35531 23:-0.219219 24:-0.433914 25:-0.140883 26:0.377222 27:-0.239277 28:-0.22248 29:-0.175432 30:0.48901 31:-0.246596 32:-0.213599 33:-0.171468 34:0.155726 35:-0.13586 36:-0.35504 
-1024 1:-0.343485 2:-0.462646 3:-0.231901 4:-0.277599 5:-0.657769 6:-0.528327 7:-0.317624 8:0.0842935 9:-0.665647 10:-0.706396 11:-0.277654 12:0.29278 13:-0.632718 14:-0.717201 15:-0.2752 16:0.404541 17:-0.679251 18:-0.670999 19:-0.391753 20:-0.343551 21:-0.240287 22:-0.102421 23:-0.681539 24:-0.555851 25:-0.257944 26:0.283398 27:-0.546727 28:-0.652656 29:-0.252734 30:0.314621 31:-0.580029 32:-0.673561 33:-0.270574 34:0.502733 35:-0.609069 36:-0.620461 
-484.7647014374357 1:-0.674629 2:-0.785788 3:-0.658894 4:-0.553033 5:-0.727058 6:-0.844389 7:-0.705949 8:0.0839161 9:-0.861721 10:-0.841288 11:-0.68623 12:0.421219 13:-0.826333 14:-0.85818 15:-0.689694 16:0.504574 17:-0.845249 18:-0.838209 19:-0.678212 20:-0.803203 21:-0.643075 22:-0.249219 23:-0.852946 24:-0.900004 25:-0.638893 26:0.544502 27:-0.89269 28:-0.874876 29:-0.657091 30:0.676587 31:-0.896064 32:-0.879298 33:-0.643215 34:0.636358 35:-0.899853 36:-0.884296 
1024 1:-0.323329 2:-0.36392 3:-0.239263 4:-0.230279 5:-0.516731 6:-0.331272 7:-0.346804 8:-0.105325 9:-0.373093 10:-0.633006 11:-0.243796 12:-0.172094 13:-0.367135 14:-0.730038 15:-0.241227 16:-0.344934 17:-0.411875 18:-0.709841 19:-0.254491 20:-0.308733 21:-0.170499 22:-0.0888753 23:-0.600262 24:-0.444726 25:-0.236119 26:0.496593 27:-0.54356 28:-0.47456 29:-0.102092 30:0.00875816 31:-0.497897 32:-0.713401 33:-0.117949 34:0.0909529 35:-0.487374 36:-0.707275 
-856.8703259272545 1:-0.295109 2:-0.0422881 3:-0.0134959 4:0.19383 5:-0.593845 6:0.170056 7:-0.0819365 8:-0.279179 9:-0.0666303 10:-0.563096 11:-0.0857816 12:-0.0775945 13:-0.0997725 14:-0.450551 15:-0.0804105 16:0.0169572 17:-0.227356 18:-0.352016 19:-0.339419 20:-0.0150422 21:-0.0847557 22:0.0686935 23:-0.542313 24:-0.135497 25:-0.0992163 26:-0.414352 27:0.0791201 28:-0.616986 29:-0.1457 30:-0.178146 31:-0.0908908 32:-0.45056 33:-0.133807 34:0.0715237 35:-0.143329 36:-0.413962 
1024 1:-0.690753 2:-0.553092 3:-0.560736 4:-0.549005 5:-0.523247 6:-0.706229 7:-0.611672 8:0.301688 9:-0.77203 10:-0.601473 11:-0.566593 12:0.306031 13:-0.649436 14:-0.747629 15:-0.56512 16:0.219984 17:-0.650654 18:-0.741228 19:-0.74615 20:-0.540801 21:-0.593224 22:-0.457306 23:-0.500644 24:-0.832006 25:-0.654766 26:0.612326 27:-0.679832 28:-0.549563 29:-0.633305 30:0.352098 31:-0.621449 32:-0.743101 33:-0.625376 34:0.27284 35:-0.593167 36:-0.773872 
1024 1:-0.231758 2:-0.32988 3:-0.0576681 4:0.120416 5:-0.820489 6:-0.251034 7:-0.0886683 8:-0.144651 9:-0.48865 10:-0.726436 11:-0.0722398 12:0.253836 13:-0.554473 14:-0.654353 15:-0.0690877 16:0.274095 17:-0.593069 18:-0.619673 19:-0.33896 20:-0.260399 21:-0.16651 22:0.247469 23:-0.829165 24:-0.287258 25:-0.109137 26:-0.0171048 27:-0.401327 28:-0.710964 29:-0.131824 30:0.0350214 31:-0.456782 32:-0.669275 33:-0.129842 34:0.101206 35:-0.455838 36:-0.676257 
227.9838230475562 1:-0.219664 2:-0.244363 3:-0.038036 4:-0.434352 5:-0.306224 6:-0.446855 7:-0.189679 8:0.560493 9:-0.604682 10:-0.287629 11:-0.0383795 12:0.0511266 13:-0.420958 14:-0.63868 15:-0.0283173 16:-0.219937 17:-0.424358 18:-0.646729 19:-0.354109 20:-0.237988 21:-0.184457 22:-0.325028 23:-0.415996 24:-0.572098 25:-0.269849 26:1 27:-0.613355 28:-0.0580837 29:-0.129842 30:-0.228463 31:-0.383999 32:-0.717826 33:-0.125878 34:-0.148542 35:-0.367202 36:-0.725261 
-1024 1:-0.386103 2:-0.647404 3:-0.337423 4:-0.0791081 5:-0.933953 6:-0.608617 7:-0.342315 8:-0.194025 9:-0.711672 10:-0.889462 11:-0.313772 12:0.318449 13:-0.788354 14:-0.848054 15:-0.31597 16:0.194434 17:-0.779994 18:-0.853577 19:-0.448218 20:-0.58429 21:-0.355938 22:0.0991941 23:-0.924281 24:-0.643815 25:-0.335325 26:0.225585 27:-0.702252 28:-0.845737 29:-0.32211 30:0.289053 31:-0.741496 32:-0.842394 33:-0.310217 34:0.225541 35:-0.730366 36:-0.869092 
-1024 1:-0.141916 2:-0.211369 3:0.038036 4:0.119586 5:-0.709865 6:-0.119513 7:-0.00112795 8:-0.173363 9:-0.364748 10:-0.665946 11:0.0428852 12:0.105872 13:-0.434576 14:-0.616693 15:0.0418984 16:0.119223 17:-0.492431 18:-0.57066 19:-0.211798 20:-0.129296 21:-0.0488634 22:0.163854 23:-0.698982 24:-0.217797 25:-1.19048e-05 26:-0.0302089 27:-0.285991 28:-0.60829 29:-0.00298612 30:-0.015352 31:-0.352454 32:-0.585112 33:0.00296035 34:0.00748657 35:-0.333398 36:-0.605964 
1024 1:-0.461548 2:-0.520709 3:-0.349693 4:-0.175198 5:-0.741114 6:-0.460722 7:-0.387209 8:-0.197728 9:-0.565418 10:-0.810658 11:-0.363434 12:0.262435 13:-0.662202 14:-0.763902 15:-0.336356 16:0.0462304 17:-0.645145 18:-0.777937 19:-0.579512 20:-0.489659 21:-0.437693 22:0.0429861 23:-0.805914 24:-0.488821 25:-0.456355 26:0.21002 27:-0.575977 28:-0.75849 29:-0.42518 30:0.162637 31:-0.61262 32:-0.786768 33:-0.435091 34:0.117368 35:-0.585703 36:-0.812349 
-1024 1:-0.384951 2:-0.222381 3:-0.155829 4:-0.211778 5:-0.507511 6:-0.313502 7:-0.221104 8:0.199741 9:-0.471236 10:-0.472343 11:-0.191877 12:0.647118 13:-0.528626 14:-0.397119 15:-0.164216 16:0.0134881 17:-0.40993 18:-0.548015 19:-0.411034 20:-0.13476 21:-0.206389 22:-0.230077 23:-0.445948 24:-0.472822 25:-0.184534 26:0.367103 27:-0.353117 28:-0.36641 29:-0.232913 30:0.94615 31:-0.500512 32:-0.231182 33:-0.189307 34:0.160343 35:-0.307086 36:-0.51586 
213.1681689450617 1:0.131052 2:-0.137571 3:0.204907 4:0.111157 5:-0.600805 6:-0.0333513 7:0.182934 8:-0.223091 9:-0.209416 10:-0.59941 11:0.329564 12:-0.107751 13:-0.341205 14:-0.62772 15:0.322756 16:-0.172748 17:-0.403431 18:-0.583081 19:0.106758 20:-0.0243801 21:0.0847338 22:0.169033 23:-0.545299 24:0.00151483 25:0.331333 26:0.0174565 27:-0.238884 28:-0.498993 29:0.363709 30:-0.515531 31:-0.212334 32:-0.647826 33:0.361727 34:-0.34662 35:-0.205313 36:-0.646659 
-1024 1:-0.345213 2:-0.366681 3:-0.209815 4:-0.0218122 5:-0.730976 6:-0.277157 7:-0.250285 8:-0.186784 9:-0.434243 10:-0.722683 11:-0.22348 12:0.288233 13:-0.547163 14:-0.637371 15:-0.204987 16:-0.0672982 17:-0.5154 18:-0.687724 19:-0.399098 20:-0.332525 21:-0.268203 22:0.107678 23:-0.769169 24:-0.37227 25:-0.230167 26:0.0355553 27:-0.443743 28:-0.727878 29:-0.258681 30:0.326586 31:-0.543014 32:-0.631569 33:-0.236877 34:0.0452121 35:-0.466387 36:-0.724434 
-1024 1:-0.471914 2:-0.0465932 3:-0.278527 4:-0.328562 5:-0.0469794 6:-0.0707035 7:-0.297421 8:-0.164275 9:0.0145744 10:-0.434759 11:-0.257338 12:-0.148681 13:0.0219131 14:-0.42582 15:-0.248022 16:-0.330677 17:-0.0557582 18:-0.394011 19:-0.532228 20:-0.100224 21:-0.337994 22:-0.322413 23:-0.209386 24:-0.384788 25:-0.311516 26:0.0699659 27:-0.0956437 28:-0.402365 29:-0.288413 30:0.0118308 31:-0.202665 32:-0.471329 33:-0.274538 34:0.0322687 35:-0.200187 36:-0.511685 
-1024 1:-0.437935 2:-0.755401 3:-0.37178 4:-0.396331 5:-0.88605 6:-0.852637 7:-0.407411 8:0.107565 9:-0.905951 10:-0.884634 11:-0.370206 12:0.597401 13:-0.920021 14:-0.874269 15:-0.359006 16:0.682193 17:-0.923273 18:-0.869659 19:-0.424806 20:-0.677926 21:-0.290138 22:-0.0291133 23:-0.942981 24:-0.83211 25:-0.269849 26:0.753255 27:-0.933144 28:-0.80789 29:-0.280484 30:0.951735 31:-0.930929 32:-0.824666 33:-0.274538 34:0.784551 35:-0.916574 36:-0.84169 
-1024 1:-0.705726 2:-0.995009 3:-0.732515 4:-0.512448 5:-0.967072 6:-0.989452 7:-0.739619 8:-0.0401871 9:-0.985905 10:-1 11:-0.708804 12:0.458401 13:-0.997141 14:-1 15:-0.71008 16:0.494579 17:-0.991137 18:-1 19:-0.705295 20:-0.94222 21:-0.668995 22:-0.126024 23:-0.993738 24:-0.968979 25:-0.648813 26:0.601906 27:-1 28:-0.976064 29:-0.631322 30:0.701516 31:-1 32:-0.986697 33:-0.635287 34:0.653588 35:-1 36:-0.987676 
1024 1:0.221459 2:0.368631 3:0.479754 4:-0.13615 5:0.13061 6:0.268804 7:0.3019 8:0.53899 9:-0.0383442 10:0.163564 11:0.431145 12:-0.0235779 13:0.199179 14:-0.107456 15:0.440538 16:-0.245091 17:0.131899 18:-0.076502 19:-0.0116678 20:0.381735 21:0.262199 22:-0.40752 23:0.179021 24:-0.151209 25:0.202367 26:0.653389 27:-0.0125376 28:0.386665 29:0.246764 30:-0.079642 31:0.192617 32:-0.0737851 33:0.248746 34:-0.0942099 35:0.250497 36:-0.117809 
1024 1:-0.175895 2:0.0867329 3:0.0969324 4:0.0341052 5:-0.340863 6:0.167874 7:-0.00112795 8:0.0467598 9:-0.0982617 10:-0.327418 11:0.00225284 12:0.472792 13:-0.168971 14:-0.125305 15:0.0101881 16:-0.189507 17:-0.0501586 18:-0.271626 19:-0.248523 20:0.113182 21:-0.0129731 22:-0.122326 23:-0.294856 24:-0.157017 25:-0.0238214 26:-0.0507117 27:0.0563266 28:-0.318193 29:-0.0624489 30:0.461222 31:-0.149558 32:-0.114056 33:-0.0465936 34:0.0950407 35:-0.0318286 36:-0.282426 
41.64586504542498 1:0.210518 2:-0.00544525 3:0.381596 4:-0.0846897 5:-0.479198 6:-0.197731 7:0.263742 8:0.758005 9:-0.623997 10:-0.208884 11:0.372454 12:0.637074 13:-0.471325 14:-0.345205 15:0.365792 16:1 17:-0.54427 18:-0.22038 19:0.0167908 20:0.172796 21:0.15851 22:-0.149128 23:-0.314191 24:-0.229243 25:0.144827 26:0.866183 27:-0.345455 28:0.170073 29:0.213067 30:0.0894768 31:-0.117173 32:-0.286198 33:0.19721 34:0.492679 35:-0.200173 36:-0.157164 
1024 1:-0.491495 2:0.00268811 3:-0.214723 4:-0.262712 5:-0.0968682 6:-0.0152175 7:-0.27273 8:0.105049 9:-0.116432 10:-0.277364 11:-0.255081 12:0.246881 13:-0.0773351 14:-0.221401 15:-0.236697 16:-0.141083 17:-0.0474182 18:-0.277867 19:-0.562068 20:-0.0857905 21:-0.30609 22:-0.360762 23:-0.186871 24:-0.423063 25:-0.329373 26:0.126085 27:-0.0943751 28:-0.349727 29:-0.345896 30:0.444928 31:-0.253636 32:-0.264876 33:-0.337967 34:0.24497 35:-0.171351 36:-0.349143 
426.2895383002457 1:0.156389 2:0.681782 3:0.469938 4:-0.267283 5:0.751401 6:0.544688 7:0.33108 8:0.269894 9:0.554483 10:0.362562 11:0.309248 12:-0.344365 13:0.950825 14:0.288887 15:0.291046 16:0.390855 17:0.515819 18:0.767052 19:-0.00983166 20:0.531466 21:0.236277 22:-0.581335 23:0.49902 24:-0.161162 25:0.182526 26:0.00641207 27:0.534734 28:0.249218 29:0.199192 30:0.314733 31:0.304451 32:0.313264 33:0.155585 34:0.714179 35:0.208454 36:0.509307 
250.4677994734415 1:-0.0877805 2:0.136746 3:0.180369 4:-0.200349 5:-0.0165117 6:0.0830438 7:0.0504997 8:0.301154 9:-0.202321 10:-0.185146 11:0.0835175 12:-0.0387561 13:0.0510123 14:-0.278103 15:0.0690786 16:0.493787 17:-0.174799 18:-0.0121841 19:-0.217307 20:0.159942 21:0.0129492 22:-0.18796 23:-0.15416 24:-0.115895 25:0.00594048 26:0.0979178 27:0.00493517 28:-0.221922 29:-0.0208255 30:-0.0393276 31:0.0221481 32:-0.247078 33:-0.0426293 34:0.644081 35:-0.155513 36:0.00467061 
-1024 1:-0.628558 2:-0.845546 3:-0.732515 4:-0.580681 5:-0.71975 6:-0.865257 7:-0.775534 8:0.0385911 9:-0.86276 10:-0.866238 11:-0.767495 12:0.527314 13:-0.870906 14:-0.85169 15:-0.771235 16:0.387861 17:-0.844657 18:-0.889812 19:-0.635059 20:-0.856734 21:-0.712863 22:-0.288222 23:-0.846113 24:-0.931694 25:-0.763891 26:0.560886 27:-0.903213 28:-0.882189 29:-0.760161 30:0.866093 31:-0.93606 32:-0.850994 33:-0.748268 34:0.594696 35:-0.909306 36:-0.9174 
-1024 1:-0.602644 2:-0.750857 3:-0.673618 4:-0.346577 5:-0.837481 6:-0.699182 7:-0.69697 8:0.127425 9:-0.837573 10:-0.790779 11:-0.679458 12:0.548131 13:-0.823707 14:-0.788149 15:-0.687429 16:0.526244 17:-0.814714 18:-0.793759 19:-0.748445 20:-0.79912 21:-0.76072 22:-0.153056 23:-0.889569 24:-0.818993 25:-0.767859 26:0.534398 27:-0.843905 28:-0.832341 29:-0.787911 30:0.76372 31:-0.861478 32:-0.803798 33:-0.787911 34:0.602608 35:-0.832831 36:-0.836848 
-1024 1:-0.571546 2:-0.742494 3:-0.565644 4:-0.304348 5:-0.873662 6:-0.719557 7:-0.607185 8:-0.185369 9:-0.695342 10:-0.887477 11:-0.555306 12:0.0845962 13:-0.735225 14:-0.914572 15:-0.549265 16:0.234478 17:-0.800572 18:-0.877668 19:-0.608893 20:-0.725496 21:-0.543374 22:-0.166403 23:-0.874772 24:-0.844941 25:-0.567464 26:0.38325 27:-0.7927 28:-0.861728 29:-0.52825 30:0.437751 31:-0.836675 32:-0.895009 33:-0.526268 34:0.450242 35:-0.839593 36:-0.894002 
-1024 1:0.394212 2:0.500744 3:0.56319 4:0.249555 5:-0.0394285 6:0.74516 7:0.479227 8:0.0768638 9:0.343469 10:0.00411895 11:0.559812 12:0.311706 13:0.201518 14:0.150195 15:0.565111 16:-0.478485 17:0.318748 18:-0.00824624 19:0.167807 20:0.574461 21:0.34794 22:-0.08409 23:0.10872 24:0.331387 25:0.420617 26:-0.497074 27:0.684811 28:-0.110218 29:0.347852 30:0.236784 31:0.353066 32:0.319735 33:0.387495 34:-0.229922 35:0.533976 36:0.0585964 
496.1888079272629 1:0.281923 2:-0.041263 3:0.51411 4:0.555039 5:-0.855878 6:0.144349 7:0.508408 8:-0.250632 9:-0.288359 10:-0.656083 11:0.47629 12:0.0766782 13:-0.338828 14:-0.526854 15:0.481306 16:0.533451 17:-0.503616 18:-0.391707 19:0.199479 20:0.0566264 21:0.387821 22:0.706638 23:-0.876124 24:0.214858 25:0.458315 26:-0.223683 27:-0.164421 28:-0.594166 29:0.397406 30:-0.281607 31:-0.188303 32:-0.526432 33:0.405335 34:0.00836457 35:-0.24894 36:-0.50057 
1024 1:-0.312962 2:0.00901824 3:-0.0282199 4:-0.0357096 5:-0.335614 6:0.0924354 7:-0.0819365 8:0.0470586 9:-0.179642 10:-0.383328 11:-0.0474089 12:0.100902 13:-0.139087 14:-0.36474 15:-0.0487025 16:0.0997869 17:-0.21106 18:-0.287806 19:-0.382113 20:0.00807933 21:-0.144576 22:-0.0649487 23:-0.385236 24:-0.152902 25:-0.079375 26:-0.0563739 27:-0.0525984 28:-0.432723 29:-0.0981278 30:0.0250858 31:-0.153498 32:-0.388834 33:-0.10011 34:0.132341 35:-0.149226 36:-0.374949 
-1024 1:0.0216412 2:-0.17743 3:0.138651 4:-0.442238 5:-0.298905 6:-0.459728 7:0.0235635 8:0.427545 9:-0.557186 10:-0.386046 11:0.162523 12:0.23108 13:-0.470103 14:-0.577975 15:0.168737 16:0.116514 17:-0.491887 18:-0.564776 19:0.0406599 20:0.113845 21:0.29809 22:-0.541872 23:-0.11677 24:-0.568838 25:0.214272 26:0.415694 27:-0.220522 28:-0.142395 29:0.270548 30:0.180546 31:-0.224227 32:-0.341912 33:0.276494 34:0.169784 35:-0.207952 36:-0.376243 
-152.8099183639773 1:-0.426417 2:-0.453345 3:-0.334969 4:-0.33812 5:-0.59978 6:-0.533179 7:-0.405166 8:0.18709 9:-0.658454 10:-0.622546 11:-0.363434 12:0.357475 13:-0.616105 14:-0.672452 15:-0.365801 16:0.307867 17:-0.627342 18:-0.659239 19:-0.466122 20:-0.277932 21:-0.310078 22:-0.352173 23:-0.424431 24:-0.618276 25:-0.321437 26:0.238617 27:-0.42188 28:-0.569266 29:-0.351842 30:0.497443 31:-0.512277 32:-0.519321 33:-0.361751 34:0.311141 35:-0.442003 36:-0.571285 
1024 1:-0.505317 2:-0.631166 3:-0.408587 4:-0.391806 5:-0.746289 6:-0.714829 7:-0.452302 8:0.128148 9:-0.807579 10:-0.786506 11:-0.41761 12:0.401624 13:-0.7754 14:-0.805398 15:-0.406571 16:0.573892 17:-0.817301 18:-0.770507 19:-0.501011 20:-0.567708 21:-0.433705 22:-0.252134 23:-0.710348 24:-0.762732 25:-0.396831 26:0.497763 27:-0.770313 28:-0.751668 29:-0.407341 30:0.530469 31:-0.76912 32:-0.785901 33:-0.411305 34:0.564438 35:-0.775876 36:-0.773804 
-1024 1:-0.0422832 2:0.0890214 3:0.170553 4:0.0199762 5:-0.354117 6:0.113706 7:0.0931464 8:0.122362 9:-0.155776 10:-0.308171 11:0.142206 12:0.489356 13:-0.247155 14:-0.194752 15:0.171002 16:-0.42648 17:-0.0805481 18:-0.401655 19:-0.199405 20:0.200146 21:0.0209252 22:-0.155094 23:-0.234888 24:-0.147203 25:0.0595119 26:-0.177977 27:0.131456 28:-0.351825 29:0.0188176 30:0.641813 31:-0.185226 32:-0.0316072 33:0.060443 34:-0.0816631 35:0.0336828 36:-0.329332 
34.61440904745009 1:-0.32736 2:-0.57035 3:-0.229447 4:-0.205253 5:-0.842276 6:-0.641728 7:-0.277219 8:0.201572 9:-0.82751 10:-0.771744 11:-0.237024 12:0.629085 13:-0.826846 14:-0.753868 15:-0.241227 16:0.656215 17:-0.823716 18:-0.747845 19:-0.332074 20:-0.438263 21:-0.204395 22:0.0379007 23:-0.854879 24:-0.621514 25:-0.198423 26:0.523497 27:-0.738781 28:-0.690139 29:-0.207144 30:0.679862 31:-0.750005 32:-0.695894 33:-0.207144 34:0.522379 35:-0.722293 36:-0.729076 
178.0733802802694 1:0.178271 2:0.5733 3:0.430673 4:-0.290298 5:0.557706 6:0.364546 7:0.299655 8:0.603538 9:0.173621 10:0.424216 11:0.306991 12:0.116174 13:0.539407 14:0.312993 15:0.320491 16:-0.215343 17:0.491921 18:0.306209 19:-0.0153402 20:0.537993 21:0.230295 22:-0.547039 23:0.400999 24:-0.184779 25:0.168637 26:0.425971 27:0.26092 28:0.452553 29:0.145674 30:0.578868 31:0.225701 32:0.42247 33:0.189281 34:0.277758 35:0.318002 36:0.239455 
-1024 1:-0.335999 2:-0.282427 3:-0.212269 4:-0.195118 5:-0.501027 6:-0.272032 7:-0.299666 8:0.0691511 9:-0.414743 10:-0.52898 11:-0.221223 12:-0.0618172 13:-0.339477 14:-0.650466 15:-0.225372 16:0.0288692 17:-0.429678 18:-0.566928 19:-0.393589 20:-0.243967 21:-0.252251 22:-0.114435 23:-0.568045 24:-0.435872 25:-0.273817 26:0.372966 27:-0.430756 28:-0.456076 29:-0.228948 30:0.157692 31:-0.432564 32:-0.601456 33:-0.236877 34:0.372365 35:-0.463403 36:-0.542874 
1024 1:0.365996 2:0.335838 3:0.56319 4:0.379745 5:-0.402379 6:0.555106 7:0.450046 8:0.0615878 9:0.0578002 10:-0.212081 11:0.494349 12:0.296245 13:0.0164735 14:-0.0511882 15:0.506221 16:-0.0451057 17:0.0207733 18:-0.0792255 19:0.0851843 20:0.32721 21:0.232289 22:0.14923 23:-0.346004 24:0.224156 25:0.327365 26:-0.207278 27:0.217127 28:-0.262935 29:0.262619 30:0.0381501 31:0.0895395 32:-0.102444 33:0.284423 34:-0.0296347 35:0.13561 36:-0.176092 
1024 1:0.374058 2:0.336662 3:0.553374 4:0.387716 5:-0.400837 6:0.573194 7:0.472493 8:-0.0550229 9:0.132658 10:-0.256314 11:0.480805 12:0.224431 13:0.0562105 14:-0.0635661 15:0.503956 16:-0.293833 17:0.0948712 18:-0.13565 19:0.135676 20:0.275726 21:0.274164 22:0.199074 23:-0.435811 24:0.182513 25:0.357127 26:-0.190321 27:0.146839 28:-0.308163 29:0.30028 30:0.0937605 31:0.011639 32:-0.145553 33:0.316137 34:-0.0302295 35:0.0744386 36:-0.231306 
-1024 1:-0.315842 2:-0.778981 3:-0.337423 4:-0.271808 5:-0.94369 6:-0.818779 7:-0.353538 8:0.0515164 9:-0.914015 10:-0.917243 11:-0.293456 12:0.548389 13:-0.934242 14:-0.907358 15:-0.286525 16:0.628161 17:-0.935511 18:-0.900581 19:-0.453727 20:-0.684321 21:-0.37189 22:0.0280417 23:-0.949574 24:-0.77627 25:-0.353181 26:0.525327 27:-0.879836 28:-0.862141 29:-0.335985 30:0.640893 31:-0.892143 32:-0.877781 33:-0.339949 34:0.638124 35:-0.897279 36:-0.874424 
1024 1:-0.0244296 2:0.14193 3:0.222085 4:0.233562 5:-0.430999 6:0.363409 7:0.149263 8:-0.167923 9:0.0476673 10:-0.403775 11:0.185096 12:-0.0477432 13:-0.00459084 14:-0.32306 15:0.184592 16:-0.113647 17:-0.0909871 18:-0.255187 19:-0.199864 20:0.0751398 21:-0.0189551 22:0.0688066 23:-0.476849 24:-0.0571859 25:0.0555437 26:-0.204795 27:-0.0270807 28:-0.511231 29:0.0148533 30:0.0156099 31:-0.158319 32:-0.385578 33:-0.00298612 34:0.22758 35:-0.184479 36:-0.335787 
1024 1:-0.334271 2:-0.15413 3:-0.116564 4:-0.0139596 5:-0.5346 6:-0.0596232 7:-0.18519 8:-0.109193 9:-0.227746 10:-0.53983 11:-0.162532 12:0.119816 13:-0.275982 14:-0.485533 15:-0.166481 16:0.105379 17:-0.33987 18:-0.432371 19:-0.470713 20:-0.0982343 21:-0.234305 22:-0.0909757 23:-0.469163 24:-0.285018 25:-0.234135 26:-0.154719 27:-0.0693045 28:-0.560655 29:-0.260663 30:0.157221 31:-0.239283 32:-0.418743 33:-0.264627 34:0.209076 35:-0.235213 36:-0.425955 
1024 1:-0.117152 2:0.206905 3:0.158283 4:-0.0285632 5:-0.117441 6:0.273279 7:0.0549891 8:0.211251 9:-0.0662517 10:-0.159457 11:0.0722307 12:0.307347 13:-0.00131652 14:-0.0765278 15:0.0917288 16:-0.197301 17:0.0508978 18:-0.16501 19:-0.266886 20:0.250835 21:-0.0109791 22:-0.295201 23:0.0532167 24:-0.0904253 25:-0.00199603 26:-0.0744224 27:0.212253 28:-0.190503 29:-0.0465936 30:0.476507 31:-0.0168296 32:0.0497366 33:-0.0485738 34:0.135938 35:0.130623 36:-0.0942105 
510.4137477807915 1:0.554873 2:0.449375 3:0.658894 4:0.0475903 5:0.0448355 6:0.464138 7:0.497185 8:0.27105 9:0.186633 10:0.0703353 11:0.467261 12:0.912208 13:0.0380357 14:0.469376 15:0.519811 16:-0.215549 17:0.331404 18:0.154062 19:0.233905 20:0.577219 21:0.343952 22:-0.215897 23:0.285944 24:0.272882 25:0.40673 26:0.0505682 27:0.540279 28:0.334021 29:0.276494 30:0.545854 31:0.386268 32:0.593641 33:0.393442 34:0.16663 35:0.455438 36:0.304462 
-1024 1:-0.25134 2:-0.0490282 3:-0.0773002 4:-0.131235 5:-0.236713 6:0.0455552 7:-0.117849 8:-0.0519724 9:-0.118352 10:-0.422361 11:-0.060953 12:-0.0525011 13:-0.110644 14:-0.440792 15:-0.0600276 16:-0.0808893 17:-0.209435 18:-0.382019 19:-0.32427 20:-0.0516089 21:-0.160528 22:-0.0228628 23:-0.471572 24:-0.184757 25:-0.109137 26:0.000836045 27:-0.106513 28:-0.437198 29:-0.12786 30:0.0421648 31:-0.180816 32:-0.409295 33:-0.133807 34:0.0821446 35:-0.179995 36:-0.440759 
1024 1:-0.458668 2:-0.151975 3:-0.263803 4:-0.345736 5:-0.177436 6:-0.204355 7:-0.315379 8:0.0156338 9:-0.220183 10:-0.432968 11:-0.309257 12:0.0440074 13:-0.126752 14:-0.424344 15:-0.309175 16:0.084691 17:-0.239497 18:-0.354686 19:-0.493666 20:-0.154066 21:-0.298114 22:-0.342158 23:-0.281198 24:-0.478074 25:-0.28969 26:0.179104 27:-0.215639 28:-0.410576 29:-0.316163 30:0.329939 31:-0.299685 32:-0.384805 33:-0.318145 34:0.377907 35:-0.314605 36:-0.393899 
1024 1:-0.272648 2:-0.21467 3:-0.109202 4:-0.0704194 5:-0.562617 6:-0.178616 7:-0.187434 8:-0.045384 9:-0.368577 10:-0.585369 11:-0.142215 12:0.152534 13:-0.380127 14:-0.55633 15:-0.139301 16:-0.00430068 17:-0.409079 18:-0.552766 19:-0.350895 20:-0.0874584 21:-0.172493 22:-0.189691 23:-0.388185 24:-0.355099 25:-0.154772 26:-0.0541707 27:-0.177513 28:-0.554427 29:-0.199218 30:0.313533 31:-0.318457 32:-0.401626 33:-0.179396 34:0.098987 35:-0.254814 36:-0.504351 
1024 1:-0.20757 2:-0.0455138 3:-0.0282199 4:-0.153866 5:-0.286718 6:-0.0475686 7:-0.115604 8:-0.0248717 9:-0.165926 10:-0.432448 11:-0.0767545 12:0.116691 13:-0.18203 14:-0.395626 15:-0.0622926 16:-0.153344 17:-0.194366 18:-0.403833 19:-0.263673 20:0.0193356 21:-0.0987139 22:-0.249149 23:-0.232759 24:-0.2906 25:-0.0615179 26:-0.0182244 27:-0.0869461 28:-0.428132 29:-0.0901991 30:0.365622 31:-0.25863 32:-0.297815 33:-0.0743418 34:0.200891 35:-0.196869 36:-0.372354 
1024 1:-0.460972 2:-0.608281 3:-0.398771 4:-0.0831135 5:-0.892207 6:-0.524145 7:-0.434347 8:-0.0498182 9:-0.725476 10:-0.828127 11:-0.41761 12:0.182573 13:-0.699494 14:-0.835459 15:-0.420161 16:0.704512 17:-0.809651 18:-0.708949 19:-0.613942 20:-0.501382 21:-0.461621 22:0.110331 23:-0.866736 24:-0.483304 25:-0.472228 26:0.0625958 27:-0.523221 28:-0.815664 29:-0.464823 30:-0.0755377 31:-0.551757 32:-0.837231 33:-0.484645 34:0.597547 35:-0.689763 36:-0.664053 
-1024 1:-0.591126 2:-0.741782 3:-0.653986 4:-0.45352 5:-0.745033 6:-0.748797 7:-0.69697 8:0.128911 9:-0.81162 10:-0.766337 11:-0.659142 12:0.24271 13:-0.727846 14:-0.857604 15:-0.655719 16:0.154864 17:-0.732352 18:-0.856997 19:-0.56069 20:-0.715396 21:-0.565308 22:-0.207959 23:-0.821973 24:-0.825994 25:-0.613099 26:0.622682 27:-0.843695 28:-0.757823 29:-0.571858 30:0.396808 31:-0.794708 32:-0.874717 33:-0.561947 34:0.355768 35:-0.787675 36:-0.888875 
-1024 1:-0.268617 2:-0.0973598 3:-0.0527601 4:0.146934 5:-0.557791 6:0.152929 7:-0.104381 8:-0.458034 9:0.0621756 10:-0.619154 11:-0.0767545 12:-0.465015 13:0.00256891 14:-0.599436 15:-0.105326 16:-0.387339 17:-0.13494 18:-0.468741 19:-0.298562 20:-0.139149 21:-0.118654 22:0.0347443 23:-0.548838 24:-0.195348 25:-0.0912798 26:-0.0563595 27:-0.175359 28:-0.543827 29:-0.0604667 30:-0.268666 31:-0.226797 32:-0.599206 33:-0.10011 34:-0.0130095 35:-0.223948 36:-0.534086 
-1024 1:-0.598613 2:-0.844567 3:-0.639262 4:-0.489964 5:-0.851178 6:-0.878006 7:-0.683502 8:0.105089 9:-0.916181 10:-0.878784 11:-0.659142 12:0.514638 13:-0.902736 14:-0.888966 15:-0.664779 16:0.572862 17:-0.903657 18:-0.880079 19:-0.597416 20:-0.788242 21:-0.593224 22:-0.21405 23:-0.874618 24:-0.890246 25:-0.625004 26:0.626779 27:-0.903419 28:-0.834973 29:-0.611501 30:0.651827 31:-0.888856 32:-0.878618 33:-0.595644 34:0.65795 35:-0.904733 36:-0.879237 
-1024 1:0.429915 2:0.395575 3:0.634354 4:0.468609 5:-0.410395 6:0.680821 7:0.526365 8:0.074403 9:0.101299 10:-0.171465 11:0.582385 12:0.26845 13:0.0697529 14:-0.0151221 15:0.585497 16:-0.0539605 17:0.067264 18:-0.0297927 19:0.132922 20:0.409488 21:0.282138 22:0.213352 23:-0.311378 24:0.384784 25:0.390857 26:-0.255568 27:0.321566 28:-0.204415 29:0.353798 30:-0.0384193 31:0.174749 32:-0.0559522 33:0.353798 34:-0.0931998 35:0.253825 36:-0.103409 
936.4217217154951 1:-0.271496 2:0.0605295 3:-0.0208579 4:-0.374852 5:0.126301 6:-0.0482831 7:-0.111115 8:0.0565246 9:-0.0705479 10:-0.296186 11:-0.0902963 12:-0.496746 13:0.243375 14:-0.453996 15:-0.116651 16:0.874955 17:-0.298741 18:0.0728589 19:-0.31417 20:0.00644181 21:-0.102702 22:-0.468249 23:0.0174651 24:-0.397402 25:-0.0912798 26:0.00898121 27:-0.0934031 28:-0.414985 29:-0.0981278 30:0.0645592 31:-0.172786 32:-0.385241 33:-0.171468 34:0.867404 35:-0.356323 36:-0.0599309 
1024 1:-0.350396 2:-0.341005 3:-0.234355 4:-0.324861 5:-0.465015 6:-0.414699 7:-0.31089 8:0.110836 9:-0.521558 10:-0.576605 11:-0.270882 12:0.257983 13:-0.471846 14:-0.5877 15:-0.25708 16:-0.00407892 17:-0.456239 18:-0.611217 19:-0.411952 20:-0.319969 21:-0.300108 22:-0.255041 23:-0.495816 24:-0.555491 25:-0.319452 26:0.342129 27:-0.48552 28:-0.547841 29:-0.296342 30:0.199464 31:-0.477006 32:-0.631266 33:-0.300306 34:0.292363 35:-0.488982 36:-0.62098 
-420.8316600328712 1:0.0118523 2:0.137801 3:0.231901 4:-0.154674 5:-0.160349 6:0.0213812 7:0.115593 8:0.460448 9:-0.28114 10:-0.111602 11:0.185096 12:0.202921 13:-0.105876 14:-0.249076 15:0.191387 16:0.241068 17:-0.183376 18:-0.164768 19:-0.0961267 20:0.227602 21:0.164493 22:-0.395409 23:-0.0571871 24:-0.340771 25:0.111097 26:0.318799 27:-0.0441929 28:-0.0395816 29:0.113959 30:0.253033 31:-0.0485258 32:-0.124586 33:0.108013 34:0.421457 35:-0.0772223 36:-0.0767428 
-1024 1:0.0607985 2:0.284921 3:0.347239 4:0.184135 5:-0.253473 6:0.449635 7:0.227827 8:-0.1234 9:0.24552 10:-0.240299 11:0.275388 12:0.0111722 13:0.155164 14:-0.133738 15:0.268398 16:-0.715537 17:0.244399 18:-0.238444 19:-0.119995 20:0.217827 21:0.118632 22:-0.100733 23:-0.256918 24:-0.0881118 25:0.109115 26:0.0768265 27:0.0703632 28:-0.163269 29:0.102068 30:0.174502 31:-0.00983116 32:-0.133889 33:0.108013 34:0.0718163 35:0.0350212 36:-0.217756 
1024 1:-0.554269 2:-0.835475 3:-0.59509 4:-0.309885 5:-0.954504 6:-0.823897 7:-0.60943 8:-0.0212473 9:-0.884311 10:-0.92184 11:-0.593681 12:0.52601 13:-0.916316 14:-0.897557 15:-0.596831 16:0.538029 17:-0.909717 18:-0.89717 19:-0.564822 20:-0.728544 21:-0.535398 22:-0.0194102 23:-0.946016 24:-0.79239 25:-0.557544 26:0.441306 27:-0.818149 28:-0.851055 29:-0.542125 30:0.582232 31:-0.859428 32:-0.868832 33:-0.538161 34:0.510635 35:-0.849854 36:-0.880469 
-1024 1:-0.277831 2:-0.286105 3:-0.165645 4:0.192254 5:-0.791299 6:-0.0564991 7:-0.0886683 8:-0.358563 9:-0.239525 10:-0.710474 11:-0.0970684 12:-0.0379925 13:-0.406035 14:-0.676431 15:-0.0962657 16:-0.185104 17:-0.441805 18:-0.655533 19:-0.239801 20:-0.091312 21:-0.100708 22:0.144838 23:-0.612151 24:-0.103382 25:0.00395635 26:-0.121736 27:-0.144092 28:-0.553293 29:0.0207998 30:-0.372698 31:-0.256347 32:-0.658176 33:0.0188176 34:-0.233896 35:-0.251747 36:-0.660973 
-1024 1:-0.498982 2:-0.454358 3:-0.352147 4:-0.31759 5:-0.630037 6:-0.531776 7:-0.391698 8:0.0901429 9:-0.629332 10:-0.670992 11:-0.347632 12:0.129215 13:-0.564658 14:-0.744968 15:-0.365801 16:0.746188 17:-0.720714 18:-0.571187 19:-0.47714 20:-0.234659 21:-0.228323 22:-0.258131 23:-0.524471 24:-0.58857 25:-0.240087 26:-0.0909424 27:-0.227645 28:-0.640716 29:-0.264627 30:-0.235584 31:-0.326432 32:-0.695888 33:-0.292377 34:1 35:-0.648947 36:-0.348174 
-1024 1:-0.329088 2:-0.0699264 3:-0.111656 4:-0.326341 5:-0.169494 6:-0.191561 7:-0.176211 8:0.246206 9:-0.269642 10:-0.270887 11:-0.151245 12:0.181692 13:-0.21245 14:-0.386693 15:-0.157421 16:0.115358 17:-0.254064 18:-0.335345 19:-0.411034 20:-0.08192 21:-0.206389 22:-0.324669 23:-0.254563 24:-0.425654 25:-0.21231 26:0.325035 27:-0.172799 28:-0.20758 29:-0.2012 30:0.191053 31:-0.26782 32:-0.419895 33:-0.219037 34:0.338066 35:-0.276549 36:-0.372867 
-1024 1:-0.0399797 2:0.149771 3:0.258895 4:0.361091 5:-0.550113 6:0.415693 7:0.187423 8:-0.181115 9:0.0639276 10:-0.402983 11:0.153493 12:0.092479 13:0.0143685 14:-0.214195 15:0.173267 16:0.114867 17:-0.104334 18:-0.146981 19:-0.158094 20:0.236781 21:0.0528295 22:0.1999 23:-0.417711 24:0.251219 25:0.12697 26:-0.141485 27:0.183331 28:-0.261086 29:0.0802645 30:0.0733622 31:0.0577064 32:-0.129906 33:0.0822467 34:0.0110458 35:0.101504 36:-0.2003 
1024 1:-0.208722 2:-0.170305 3:-0.04049 4:0.0381841 5:-0.566831 6:-0.0384823 7:-0.104381 8:-0.311744 9:-0.136522 10:-0.626175 11:-0.0406368 12:-0.171871 13:-0.233793 14:-0.606317 15:-0.0441724 16:-0.273066 17:-0.303657 18:-0.560847 19:-0.310956 20:-0.129063 21:-0.192431 22:0.0548792 23:-0.583573 24:-0.196068 25:-0.128978 26:0.0253792 27:-0.258575 28:-0.559084 29:-0.110021 30:-0.0795748 31:-0.305734 32:-0.584873 33:-0.115967 34:0.0359223 35:-0.312165 36:-0.584647 
1024 1:-0.151131 2:0.258061 3:0.146013 4:-0.00114117 5:-0.0725258 6:0.366026 7:0.0392763 8:0.242282 9:0.0875213 10:-0.00816698 11:0.0970616 12:-0.108174 13:0.272097 14:-0.133888 15:0.0849338 16:-0.164685 17:0.164785 18:-0.0302749 19:-0.299939 20:0.20403 21:-0.0747856 22:-0.264479 23:-0.00820394 24:-0.0968362 25:-0.0992163 26:0.197755 27:0.187233 28:0.0630746 29:-0.0307363 30:-0.105905 31:0.136698 32:-0.179381 33:-0.0446115 34:0.0608083 35:0.133463 36:-0.14902 
-1024 1:-0.149979 2:0.0828377 3:0.121473 4:0.376361 5:-0.602854 6:0.419018 7:0.0504997 8:-0.34894 9:0.161481 10:-0.477532 11:0.060944 12:-0.0228378 13:-0.00984937 14:-0.322585 15:0.0532235 16:-0.369106 17:0.00445591 18:-0.308129 19:-0.267804 20:0.0764695 21:-0.0428814 22:0.177162 23:-0.527548 24:0.0682845 25:0.0198294 26:-0.288012 27:0.0805256 28:-0.494864 29:-0.0109148 30:-0.159374 31:-0.0442254 32:-0.377862 33:-0.0287542 34:0.066369 35:-0.0673052 36:-0.333643 
-510.2117605759386 1:0.861798 2:0.0910715 3:1 4:0.629933 5:-0.787867 6:0.283418 7:1 8:-0.32897 9:-0.194485 10:-0.63784 11:1 12:0.293649 13:-0.369519 14:-0.42914 15:1 16:0.0261605 17:-0.364799 18:-0.440069 19:0.952722 20:0.349983 21:1 22:1 23:-0.869803 24:0.627513 25:1 26:-0.836989 27:0.285512 28:-0.614524 29:1 30:-0.701942 31:0.102372 32:-0.432372 33:1 34:-0.655486 35:0.153808 36:-0.482863 
-143.079893949869 1:-0.758131 2:0.0568687 3:-0.48957 4:-0.704476 5:0.811935 6:-0.1384 7:-0.546579 8:0.00232325 9:0.22985 10:-0.124023 11:-0.503387 12:-0.737506 13:0.80348 14:-0.412166 15:-0.547 16:0.41224 17:0.103804 18:0.229113 19:-0.785168 20:-0.17916 21:-0.533404 22:-0.752757 23:0.454624 24:-0.61851 25:-0.571433 26:-0.074121 27:0.177084 28:-0.403845 29:-0.57384 30:-0.124364 31:0.0393908 32:-0.424715 33:-0.61943 34:0.433655 35:-0.0819066 36:-0.15036 
-1020.099348392856 1:-0.45406 2:-0.38504 3:-0.334969 4:-0.0902938 5:-0.688036 6:-0.281781 7:-0.389453 8:-0.0754879 9:-0.43633 10:-0.652886 11:-0.34989 12:0.12018 13:-0.457089 14:-0.661351 15:-0.354476 16:0.207439 17:-0.523685 18:-0.593466 19:-0.567577 20:-0.3938 21:-0.441681 22:-0.0324139 23:-0.706954 24:-0.458325 25:-0.416673 26:0.252109 27:-0.497471 28:-0.646919 29:-0.429144 30:0.243872 31:-0.510369 32:-0.6586 33:-0.437073 34:0.410506 35:-0.543948 36:-0.619018 
-684.101505864762 1:0.0130035 2:0.222607 3:0.177915 4:-0.203422 5:0.000237616 6:0.0926562 7:0.0998805 8:0.257519 9:-0.0708384 10:-0.122759 11:0.106089 12:0.178368 13:0.0739552 14:-0.099065 15:0.112112 16:0.244458 17:-0.0373418 18:0.000433072 19:-0.110356 20:0.256062 21:0.0627996 22:-0.282759 23:-0.132384 24:-0.245954 25:0.0555437 26:0.315491 27:-0.0349934 28:-0.0365858 29:0.0386392 30:0.574719 31:-0.125358 32:-0.00469224 33:0.0406214 34:0.555564 35:-0.122848 36:-0.0265466 
-800.5972646490557 1:-0.251915 2:0.220833 3:0.0601221 4:-0.310444 5:0.144455 6:0.0564796 7:-0.0303088 8:0.291523 9:-0.0355271 10:-0.0504852 11:-0.022578 12:-0.00465215 13:0.279483 14:-0.0625902 15:-0.0351124 16:0.347563 17:0.0494125 18:0.159857 19:-0.3486 20:0.214579 21:-0.100708 22:-0.493773 23:0.156179 24:-0.324981 25:-0.12501 26:0.124033 27:0.167506 28:-0.0464767 29:-0.137771 30:0.237132 31:0.0577886 32:-0.0453758 33:-0.143717 34:0.325453 35:0.0497156 36:-0.0348214 
1024 1:-0.0728063 2:-0.0818462 3:0.116564 4:-0.143533 5:-0.391829 6:-0.156228 7:0.0168295 8:0.181343 9:-0.385304 10:-0.432726 11:0.0835175 12:0.0751275 13:-0.287178 14:-0.50224 15:0.0645486 16:0.526703 17:-0.441951 18:-0.322764 19:-0.197569 20:-0.0127551 21:-0.0508574 22:-0.166567 23:-0.355855 24:-0.291229 25:-0.00398016 26:0.0888325 27:-0.201981 28:-0.437817 29:-0.0089326 30:0.0661291 31:-0.251536 32:-0.450996 33:-0.0465936 34:0.521114 35:-0.334793 36:-0.296877 
455.1048757914001 1:1 2:0.449935 3:0.93865 4:1 5:-0.745254 6:0.998123 7:0.991021 8:-0.621432 9:0.51095 10:-0.438594 11:0.873584 12:0.149433 13:0.171347 14:0.00877464 15:0.891274 16:-0.568078 17:0.251707 18:-0.0973877 19:0.890754 20:0.625465 21:0.760706 22:0.854885 23:-0.640538 24:1 25:0.874994 26:-0.879853 27:0.80989 28:-0.289751 29:0.708609 30:-0.493877 31:0.588488 32:0.0890072 33:0.752218 34:-0.32736 35:0.567166 36:0.0505669 
1024 1:-0.503589 2:-0.857691 3:-0.521472 4:-0.357531 5:-0.946711 6:-0.870693 7:-0.546579 8:-0.036775 9:-0.917809 10:-0.952316 11:-0.507902 12:0.463781 13:-0.939055 14:-0.940988 15:-0.50623 16:0.567096 17:-0.945915 18:-0.930074 19:-0.513865 20:-0.786375 21:-0.495519 22:-0.0139819 23:-0.96468 24:-0.830843 25:-0.464292 26:0.407714 27:-0.894105 28:-0.938921 29:-0.439055 30:0.386626 31:-0.897959 32:-0.957543 33:-0.460859 34:0.489488 35:-0.910602 36:-0.942185 
-1024 1:-0.14422 2:-0.134868 3:-0.00122578 4:-0.372163 5:-0.249217 6:-0.328902 7:-0.0931576 8:0.294998 9:-0.451349 10:-0.387914 11:-0.0632104 12:0.196812 13:-0.318835 14:-0.468484 15:-0.0509675 16:0.140481 17:-0.375217 18:-0.443096 19:-0.156716 20:-0.0467302 21:0.0209252 22:-0.248576 23:-0.406644 24:-0.462535 25:0.013877 26:0.425676 27:-0.38087 28:-0.332323 29:-0.0247899 30:0.651614 31:-0.431048 32:-0.323788 33:0.000978195 34:0.487533 35:-0.404607 36:-0.395274 
507.5277817555665 1:-0.756403 2:-0.402177 3:-0.60736 4:-0.570236 5:-0.112984 6:-0.465288 7:-0.640853 8:0.0604635 9:-0.39505 10:-0.500095 11:-0.625282 12:0.160605 13:-0.285956 14:-0.539674 15:-0.614949 16:-0.156353 17:-0.251309 18:-0.575 19:-0.757626 20:-0.435641 21:-0.599206 22:-0.497681 23:-0.151337 24:-0.642826 25:-0.626988 26:0.298109 27:-0.28182 28:-0.431953 29:-0.621412 30:0.0854621 31:-0.319484 32:-0.616149 33:-0.611501 34:-0.0302201 35:-0.231002 36:-0.665684 
1024 1:-0.355579 2:-0.445358 3:-0.209815 4:-0.30367 5:-0.66739 6:-0.571103 7:-0.304155 8:0.312577 9:-0.728382 10:-0.602974 11:-0.27314 12:0.602676 13:-0.702127 14:-0.623133 15:-0.286525 16:0.882765 17:-0.740197 18:-0.535853 19:-0.395884 20:-0.253633 21:-0.224335 22:-0.315812 23:-0.443838 24:-0.586339 25:-0.293659 26:0.533989 27:-0.477292 28:-0.359854 29:-0.308235 30:0.487979 31:-0.452564 32:-0.455345 33:-0.314181 34:0.836164 35:-0.54669 36:-0.3279 
-1024 1:-0.78059 2:-0.845044 3:-0.759509 4:-0.518928 5:-0.836193 6:-0.882481 7:-0.775534 8:0.0222537 9:-0.885975 10:-0.89523 11:-0.756208 12:0.409377 13:-0.871373 14:-0.90971 15:-0.762175 16:0.586691 17:-0.901635 18:-0.874579 19:-0.775529 20:-0.855171 21:-0.74078 22:-0.240887 23:-0.893866 24:-0.931407 25:-0.755954 26:0.55554 27:-0.901926 28:-0.883918 29:-0.744304 30:0.577803 31:-0.900625 32:-0.925965 33:-0.764125 34:0.665672 35:-0.917615 36:-0.894658 
770.6273425898165 1:-0.0209743 2:0.348795 3:0.229447 4:0.195316 5:-0.060909 6:0.711672 7:0.200891 8:-0.425383 9:0.635891 10:-0.263867 11:0.19864 12:-0.565565 13:0.579212 14:-0.200657 15:0.168737 16:-0.0687872 17:0.239211 18:0.116693 19:-0.149372 20:0.274579 21:0.0289013 22:0.0137714 23:-0.187388 24:0.204676 25:0.144827 26:-0.322394 27:0.317436 28:-0.305434 29:0.0763002 30:-0.0483998 31:0.137871 32:-0.127156 33:0.0426035 34:0.139167 35:0.147451 36:-0.064322 
-1024 1:-0.520291 2:-0.642174 3:-0.428219 4:-0.347244 5:-0.796189 6:-0.711256 7:-0.461281 8:0.081298 9:-0.798045 10:-0.806132 11:-0.446953 12:0.614436 13:-0.833417 14:-0.765587 15:-0.415631 16:0.525246 17:-0.818528 18:-0.790045 19:-0.557018 20:-0.593692 21:-0.483555 22:-0.101244 23:-0.830499 24:-0.718172 25:-0.454371 26:0.45731 27:-0.74688 28:-0.755804 29:-0.490591 30:0.703097 31:-0.786463 32:-0.735019 33:-0.431126 34:0.485626 35:-0.765768 36:-0.801502 
77.02248972775197 1:0.543932 2:0.329462 3:0.715337 4:0.995949 5:-0.8207 6:0.895218 7:0.773278 8:-0.794548 9:0.547476 10:-0.541692 11:0.690736 12:-0.1761 13:0.208746 14:-0.185969 15:0.710071 16:-1 17:0.285883 18:-0.292547 19:1 20:0.485166 21:0.8305 22:0.908354 23:-0.724937 24:0.893302 25:0.984127 26:-1 27:0.743143 28:-0.419163 29:0.896922 30:-1 31:0.560349 32:-0.215326 33:0.946478 34:-1 35:0.641632 36:-0.316352 
-54.06110543794714 1:-0.477673 2:0.381802 3:-0.141105 4:-0.225285 5:0.550567 6:0.564017 7:-0.1807 8:-0.40807 9:1 10:-0.0799442 11:-0.182848 12:-0.444738 13:0.943627 14:0.0873794 15:-0.175541 16:-0.761554 17:0.803605 18:0.138463 19:-0.536819 20:0.291749 21:-0.238293 22:-0.528533 23:0.463205 24:-0.159804 25:-0.208341 26:-0.545794 27:0.778216 28:-0.248745 29:-0.27652 30:0.14077 31:0.332632 32:0.149588 33:-0.262645 34:0.0476289 35:0.395383 36:0.0525571 
-65.41189488719439 1:-0.488615 2:-0.235418 3:-0.320245 4:0.136506 5:-0.693887 6:0.080855 7:-0.380475 8:-0.390058 9:-0.0417864 10:-0.653542 11:-0.356662 12:-0.550527 13:0.0623668 14:-0.671435 15:-0.383921 16:0.460031 17:-0.388334 18:-0.307584 19:-0.579053 20:-0.245922 21:-0.401801 22:0.141346 23:-0.719818 24:-0.191107 25:-0.408736 26:-0.3635 27:-0.024653 28:-0.738199 29:-0.413287 30:0.0156324 31:-0.281894 32:-0.565581 33:-0.431126 34:0.193395 35:-0.278682 36:-0.504574 
1024 1:-0.305475 2:0.0866115 3:-0.0282199 4:-0.14507 5:-0.109013 6:0.128248 7:-0.102136 8:0.0194312 9:0.00944189 10:-0.273227 11:-0.0767545 12:-0.041975 13:0.102458 14:-0.254264 15:-0.0645576 16:-0.457084 17:0.0873749 18:-0.295672 19:-0.396343 20:0.0230538 21:-0.15654 22:-0.218243 23:-0.25527 24:-0.263059 25:-0.178581 26:0.0301873 27:-0.0157136 28:-0.337186 29:-0.2012 30:0.161392 31:-0.0959765 32:-0.264446 33:-0.161557 34:0.0467604 35:-0.0790951 36:-0.375519 
-588.6692663932129 1:0.0504338 2:0.345444 3:0.300613 4:-0.268294 5:0.254318 6:0.181143 7:0.187423 8:0.306901 9:0.072203 10:0.0331643 11:0.24153 12:-0.332347 13:0.413361 14:-0.15997 15:0.209508 16:0.646267 17:0.00744047 18:0.317264 19:0.041119 20:0.3365 21:0.274164 22:-0.409352 23:0.126617 24:-0.198803 25:0.244034 26:0.211067 27:0.170988 28:0.0979018 29:0.274512 30:-0.068114 31:0.19673 32:-0.0596735 33:0.199192 34:0.853507 35:-0.0472619 36:0.316774 
1024 1:-0.789229 2:-0.199688 3:-0.60736 4:-0.18113 5:-0.535191 6:-0.128502 7:-0.618406 8:-0.193152 9:-0.128837 10:-0.570294 11:-0.60948 12:0.00212636 13:-0.147635 14:-0.543235 15:-0.614949 16:0.165351 17:-0.307549 18:-0.43372 19:-0.82281 20:-0.225331 21:-0.639087 22:-0.195571 23:-0.52056 24:-0.469688 25:-0.628972 26:-0.0175785 27:-0.11465 28:-0.613378 29:-0.635287 30:0.147431 31:-0.290874 32:-0.557918 33:-0.641233 34:0.33396 35:-0.351973 36:-0.518101 
-1024 1:-0.0658957 2:0.164732 3:0.163191 4:-0.00578495 5:-0.157793 6:0.271363 7:0.0819253 8:-0.139367 9:0.159826 10:-0.311119 11:0.108346 12:-0.0424332 13:0.129234 14:-0.20969 15:0.132497 16:-0.57782 17:0.142596 18:-0.277662 19:-0.160389 20:0.111416 21:-0.0349053 22:-0.0750025 23:-0.27117 24:-0.048735 25:0.0158611 26:0.0742932 27:0.0129209 28:-0.235597 29:0.000978195 30:0.171922 31:-0.0859148 32:-0.224047 33:0.0723359 34:-0.0285018 35:-0.0386228 36:-0.358353 
-1024 1:-0.230606 2:-0.500191 3:-0.170553 4:-0.350831 5:-0.69263 6:-0.649711 7:-0.245796 8:0.133581 9:-0.717342 10:-0.719173 11:-0.18059 12:0.309826 13:-0.703055 14:-0.769115 15:-0.184601 16:0.405238 17:-0.736418 18:-0.732406 19:-0.241637 20:-0.30442 21:-0.0887438 22:-0.214786 23:-0.63875 24:-0.653799 25:-0.132946 26:0.457238 27:-0.582384 28:-0.549915 29:-0.0664132 30:0.385908 31:-0.621901 32:-0.673398 33:-0.0961456 34:0.494529 35:-0.628555 36:-0.638727 
-73.9507435796444 1:-0.786349 2:0.0375561 3:-0.528834 4:-0.159945 5:-0.223491 6:0.183565 7:-0.530866 8:-0.340087 9:0.305693 10:-0.452032 11:-0.494358 12:-0.370832 13:0.21577 14:-0.508971 15:-0.49264 16:-0.544064 17:0.103616 18:-0.450382 19:-0.836122 20:-0.126031 21:-0.617153 22:-0.221426 23:-0.307688 24:-0.29682 25:-0.595242 26:-0.069808 27:0.155938 28:-0.430455 29:-0.561947 30:-0.451152 31:0.0386832 32:-0.622382 33:-0.567893 34:-0.334205 35:0.0866328 36:-0.619788 
-1024 1:-0.655049 2:-0.758765 3:-0.546012 4:-0.291999 5:-0.937987 6:-0.793404 7:-0.553313 8:0.0132201 9:-0.878783 10:-0.902451 11:-0.539505 12:0.568725 13:-0.910522 14:-0.873794 15:-0.540205 16:0.55642 17:-0.90031 18:-0.879213 19:-0.701623 20:-0.648552 21:-0.53141 22:0.0327101 23:-0.950277 24:-0.739111 25:-0.523813 26:0.500016 27:-0.836608 28:-0.832523 29:-0.536179 30:0.678225 31:-0.857931 32:-0.830922 33:-0.526268 34:0.555045 35:-0.842544 36:-0.853751 
323.3387013451824 1:0.421277 2:0.476009 3:0.64417 4:0.0590472 5:-0.0320888 6:0.411874 7:0.519631 8:0.698339 9:-0.135272 10:0.211904 11:0.489834 12:0.377587 13:0.216818 14:0.216722 15:0.488101 16:0.450479 17:0.108079 18:0.316192 19:0.345445 20:0.535503 21:0.459603 22:-0.272475 23:0.188945 24:0.0778813 25:0.458315 26:0.395894 27:0.253177 28:0.418557 29:0.40137 30:0.378743 31:0.30562 32:0.374065 33:0.419208 34:0.349877 35:0.312337 36:0.308853 
1024 1:0.255434 2:0.386073 3:0.48957 4:0.272237 5:-0.156283 6:0.67632 7:0.425357 8:-0.195196 9:0.313854 10:-0.253531 11:0.422116 12:0.00661404 13:0.267932 14:-0.0234963 15:0.399767 16:-0.212191 17:0.206255 18:0.0155683 19:0.193511 20:0.443707 21:0.294102 22:0.120545 23:-0.158112 24:0.409763 25:0.444427 26:-0.471469 27:0.518886 28:-0.222371 29:0.37362 30:-0.109202 31:0.300347 32:0.0269499 33:0.361727 34:-0.132795 35:0.37822 36:-0.0150155 
1024 1:-0.425265 2:-0.410695 3:-0.339877 4:-0.289394 5:-0.58226 6:-0.453253 7:-0.396187 8:-0.00682823 9:-0.508863 10:-0.652029 11:-0.38375 12:0.184782 13:-0.479428 14:-0.647538 15:-0.383921 16:0.147926 17:-0.517618 18:-0.61803 19:-0.375685 20:-0.247181 21:-0.256239 22:-0.221228 23:-0.483828 24:-0.497537 25:-0.238103 26:0.210587 27:-0.38683 28:-0.546543 29:-0.260663 30:0.216476 31:-0.41024 32:-0.554243 33:-0.256698 34:0.3017 35:-0.432137 36:-0.556224 
-1024 1:0.173088 2:0.327935 3:0.418403 4:0.159962 5:-0.206235 6:0.443049 7:0.319857 8:0.106685 9:0.0766752 10:-0.157341 11:0.288932 12:0.412643 13:0.0752302 14:0.0921087 15:0.295576 16:-0.0261605 17:0.135469 18:0.041883 19:0.0282666 20:0.399802 21:0.190415 22:0.0262141 23:-0.160966 24:0.239964 25:0.277762 26:-0.0411385 27:0.270896 28:-0.0593511 29:0.211085 30:0.244567 31:0.155415 32:0.0981766 33:0.207121 34:0.176024 35:0.221206 36:0.0550322 
1024 1:-0.558301 2:-0.51135 3:-0.487116 4:0.0563694 5:-0.893632 6:-0.276845 7:-0.479238 8:-0.306209 9:-0.44759 10:-0.815451 11:-0.487586 12:0.146284 13:-0.53605 14:-0.729713 15:-0.481315 16:0.00437989 17:-0.557317 18:-0.732736 19:-0.578594 20:-0.485004 21:-0.481561 22:0.163211 23:-0.887867 24:-0.432738 25:-0.466276 26:-0.0598329 27:-0.428451 28:-0.821868 29:-0.492573 30:0.115729 31:-0.532168 32:-0.748933 33:-0.486627 34:0.064613 35:-0.501733 36:-0.781474 
1024 1:0.272709 2:0.528139 3:0.494478 4:-0.0459971 5:0.23759 6:0.506654 7:0.384953 8:0.481817 9:0.142896 10:0.25414 11:0.419858 12:0.106424 13:0.410863 14:0.188204 15:0.413357 16:0.23196 17:0.254133 18:0.345462 19:-0.0346189 20:0.540206 21:0.240265 22:-0.408677 23:0.319046 24:-0.0325406 25:0.222208 26:0.0827254 27:0.416797 28:0.219151 29:0.207121 30:0.397022 31:0.268902 32:0.335481 33:0.205139 34:0.335536 35:0.314456 36:0.286971 
-113.8080485629988 1:0.714957 2:1 3:0.955828 4:-0.0627701 5:0.929254 6:1 7:0.800214 8:1 9:0.358462 10:1 11:0.733626 12:0.331606 13:1 14:1 15:0.728191 16:-0.0726364 17:1 18:1 19:0.478101 20:1 21:0.690913 22:-0.568206 23:1 24:0.287835 25:0.597204 26:0.157352 27:1 28:1 29:0.555977 30:0.166652 31:1 32:1 33:0.546066 34:0.271915 35:1 36:1 
-721.9448669233358 1:-0.511076 2:-0.24112 3:-0.288343 4:0.199151 5:-0.776313 6:0.0449967 7:-0.292932 8:-0.458742 9:-0.0746504 10:-0.70619 11:-0.313772 12:0.0694768 13:-0.270528 14:-0.530257 15:-0.309175 16:-0.310148 17:-0.243973 18:-0.564534 19:-0.520292 20:-0.198549 21:-0.308084 22:0.168196 23:-0.723902 24:-0.184102 25:-0.27977 26:-0.398291 27:-0.00465225 28:-0.708648 29:-0.318145 30:-0.104773 31:-0.214539 32:-0.551155 33:-0.32211 34:-0.0876203 35:-0.1769 36:-0.575733 
1024 1:-1 2:-0.697589 3:-1 4:-0.576778 5:-0.421853 6:-0.647756 7:-1 8:-0.25505 9:-0.464959 10:-0.904372 11:-1 12:0.199455 13:-0.559536 14:-0.887765 15:-1 16:0.149542 17:-0.587741 18:-0.879008 19:-1 20:-0.892526 21:-1 22:-0.254507 23:-0.853804 24:-0.885789 25:-1 26:0.350841 27:-0.750002 28:-0.969018 29:-1 30:0.402842 31:-0.788102 32:-0.973579 33:-1 34:0.397053 35:-0.791406 36:-0.977748 
-1024 1:0.264072 2:0.194215 3:0.435581 4:0.0641768 5:-0.342373 6:0.142732 7:0.317612 8:0.443198 9:-0.287276 10:-0.151964 11:0.406314 12:0.327365 13:-0.169839 14:-0.220125 15:0.399767 16:0.538488 17:-0.271476 18:-0.10137 19:0.018168 20:0.251055 21:0.176457 22:-0.1159 23:-0.298382 24:-0.161839 25:0.180542 26:0.353949 27:-0.118729 28:-0.0852395 29:0.155585 30:0.441216 31:-0.118396 32:-0.0799019 33:0.17937 34:0.453122 35:-0.134406 36:-0.113041 
-1024 1:-0.577305 2:-0.355686 3:-0.415949 4:-0.341137 5:-0.4572 6:-0.398904 7:-0.47026 8:0.0444641 9:-0.466588 10:-0.579625 11:-0.404066 12:0.166725 13:-0.445402 14:-0.631198 15:-0.395246 16:0.0904569 17:-0.483344 18:-0.611878 19:-0.636896 20:-0.331056 21:-0.483555 22:-0.356931 23:-0.410537 24:-0.621909 25:-0.476196 26:0.0388707 27:-0.328982 28:-0.678623 29:-0.468787 30:0.16433 31:-0.462886 32:-0.660763 33:-0.468787 34:0.244668 35:-0.472033 36:-0.65494 
1024 1:-0.233486 2:-0.0611906 3:-0.042944 4:-0.334923 5:-0.237526 6:-0.266096 7:-0.129073 8:0.446555 9:-0.434895 10:-0.234366 11:-0.0993257 12:0.271798 13:-0.253417 14:-0.360469 15:-0.0917356 16:0.167853 17:-0.292786 18:-0.343319 19:-0.261836 20:0.0170349 21:-0.0548455 22:-0.414125 23:-0.218729 24:-0.512025 25:-0.0773909 26:0.523677 27:-0.299407 28:-0.139891 29:-0.106056 30:0.474892 31:-0.272239 32:-0.247369 33:-0.0941634 34:0.428037 35:-0.259857 36:-0.282198 
814.6138655311831 1:-0.542751 2:-0.747134 3:-0.565644 4:-0.478609 5:-0.812589 6:-0.842129 7:-0.602696 8:0.142945 9:-0.877339 10:-0.827548 11:-0.512417 12:0.371948 13:-0.859861 14:-0.899792 15:-0.508495 16:0.397619 17:-0.870032 18:-0.892848 19:-0.595579 20:-0.633081 21:-0.543374 22:-0.372238 23:-0.738645 24:-0.913381 25:-0.547623 26:0.4905 27:-0.798149 28:-0.796355 29:-0.458877 30:0.395115 31:-0.837794 32:-0.904422 33:-0.482663 34:0.420456 35:-0.831428 36:-0.894983 
-1024 1:-0.577305 2:-0.695735 3:-0.60736 4:-0.149533 5:-0.912959 6:-0.557717 7:-0.60943 8:-0.32864 9:-0.603977 10:-0.914897 11:-0.611738 12:0.0897653 13:-0.670667 14:-0.877739 15:-0.612684 16:0.112919 17:-0.718427 18:-0.853371 19:-0.573544 20:-0.673799 21:-0.545368 22:0.0287899 23:-0.930425 24:-0.699352 25:-0.571433 26:0.0841176 27:-0.666311 28:-0.925937 29:-0.583751 30:0.150481 31:-0.716679 32:-0.898468 33:-0.591679 34:0.253741 35:-0.72135 36:-0.881359 
-1024 1:-0.517987 2:-0.210758 3:-0.285889 4:0.294259 5:-0.792862 6:0.187118 7:-0.299666 8:-0.50045 9:0.0142575 10:-0.691835 11:-0.338603 12:0.15513 13:-0.225457 14:-0.437164 15:-0.325031 16:-0.48471 17:-0.121879 18:-0.548087 19:-0.575839 20:-0.257388 21:-0.373884 22:0.148688 23:-0.724932 24:-0.197175 25:-0.349214 26:-0.269318 27:-0.0985414 28:-0.701116 29:-0.407341 30:0.158185 31:-0.312385 32:-0.512867 33:-0.389501 34:0.0364416 35:-0.259429 36:-0.581824 
-1024 1:-0.0347962 2:0.272922 3:0.214723 4:-0.0860116 5:0.0801717 6:0.346581 7:0.117838 8:0.135539 9:0.10571 10:-0.10321 11:0.137692 12:-0.0509974 13:0.2798 14:-0.0796807 15:0.141557 16:-0.104159 17:0.156773 18:0.0042459 19:-0.125962 20:0.240617 21:0.0328893 22:-0.228647 23:0.0148696 24:-0.0139373 25:0.103163 26:0.0244319 27:0.147409 28:-0.138332 29:0.060443 30:0.190459 31:0.0475351 32:-0.0668252 33:0.060443 34:0.184776 35:0.0761906 36:-0.0989552 
1024 1:-0.532961 2:-0.119216 3:-0.307975 4:-0.281994 5:-0.176771 6:-0.0930069 7:-0.358028 8:-0.0661792 9:-0.0708472 10:-0.403769 11:-0.329573 12:-0.189035 13:0.0118638 14:-0.476583 15:-0.336356 16:0.227192 17:-0.225641 18:-0.259116 19:-0.568495 20:-0.0904087 21:-0.35195 22:-0.302539 23:-0.228884 24:-0.37122 25:-0.307548 26:-0.160266 27:0.0418885 28:-0.493784 29:-0.355804 30:0.054489 31:-0.132763 32:-0.393991 33:-0.371662 34:0.45585 35:-0.235189 36:-0.256199 
-445.5054415938855 1:-0.0797175 2:0.239405 3:0.121473 4:-0.230099 5:0.206837 6:0.227386 7:0.0302976 8:0.0625941 9:0.0995471 10:-0.173031 11:0.103831 12:-0.0304269 13:0.135556 14:-0.196028 15:0.146087 16:-0.520509 17:0.114243 18:-0.271867 19:-0.306366 20:0.196255 21:-0.12663 22:-0.373224 23:0.0436606 24:-0.231465 25:-0.0694544 26:-0.157955 27:0.097437 28:-0.387223 29:-0.0743418 30:0.472189 31:-0.207984 32:-0.174177 33:-0.026772 34:0.0732419 35:-0.100593 36:-0.360013 
1024 1:-0.48516 2:-0.456813 3:-0.37178 4:-0.251397 5:-0.637831 6:-0.448031 7:-0.432102 8:-0.0297069 9:-0.568252 10:-0.708932 11:-0.440181 12:0.617161 13:-0.653925 14:-0.556547 15:-0.408836 16:-0.135729 17:-0.513225 18:-0.739192 19:-0.563904 20:-0.472465 21:-0.445669 22:-0.185412 23:-0.646818 24:-0.610954 25:-0.452387 26:0.239278 27:-0.58378 28:-0.74436 29:-0.510413 30:0.799661 31:-0.687905 32:-0.563162 33:-0.462841 34:0.214344 35:-0.577487 36:-0.763225 
1024 1:-0.543327 2:-0.509986 3:-0.408587 4:-0.490936 5:-0.563293 6:-0.676489 7:-0.472504 8:0.328703 9:-0.760092 10:-0.596916 11:-0.435667 12:0.500059 13:-0.685084 14:-0.663745 15:-0.438279 16:0.460838 17:-0.680158 18:-0.654587 19:-0.571708 20:-0.494311 21:-0.435699 22:-0.371739 23:-0.598833 24:-0.795112 25:-0.474212 26:0.694158 27:-0.72938 28:-0.541267 29:-0.476716 30:0.568136 31:-0.670826 32:-0.666275 33:-0.478698 34:0.596292 35:-0.68441 36:-0.658538 
-1024 1:-0.530657 2:-0.345812 3:-0.325153 4:0.183198 5:-0.850946 6:-0.0903635 7:-0.313134 8:-0.419502 9:-0.2453 10:-0.766307 11:-0.331831 12:0.0198304 13:-0.385687 14:-0.656897 15:-0.334091 16:0.0344926 17:-0.455193 18:-0.602207 19:-0.556099 20:-0.321641 21:-0.359926 22:0.220608 23:-0.83122 24:-0.270061 25:-0.329373 26:-0.207637 27:-0.246628 28:-0.756555 29:-0.367697 30:0.00750219 31:-0.398266 32:-0.662252 33:-0.375626 34:0.141744 35:-0.409724 36:-0.644903 
-1024 1:0.281347 2:0.442224 3:0.472392 4:0.282367 5:-0.191735 6:0.659037 7:0.384953 8:-0.0471451 9:0.278807 10:-0.151674 11:0.410829 12:-0.0423627 13:0.29922 14:-0.0317872 15:0.411092 16:-0.0440127 17:0.171556 18:0.0784754 19:0.00852888 20:0.39809 21:0.116638 22:0.0216587 23:-0.243563 24:0.13933 25:0.208319 26:-0.20374 27:0.263156 28:-0.234021 29:0.171442 30:0.0284949 31:0.115068 32:-0.0907574 33:0.15162 34:0.198399 35:0.107387 36:-0.0487306 
-817.3502780107474 1:0.243341 2:0.407164 3:0.462576 4:-0.13206 5:0.154414 6:0.297453 7:0.333325 8:0.448427 9:0.00778681 10:0.108842 11:0.372454 12:0.151488 13:0.2138 14:0.0311867 15:0.386177 16:0.0594096 17:0.120198 18:0.0823775 19:0.0617743 20:0.429771 21:0.324012 22:-0.376369 23:0.104841 24:-0.166618 25:0.265857 26:0.261517 27:0.164877 28:0.14849 29:0.266583 30:0.583141 31:0.0501921 32:0.218227 33:0.270548 34:0.470002 35:0.0951093 36:0.161036 
-224.4629436509123 1:-0.276104 2:0.211884 3:0.106748 4:0.438007 5:-0.512137 6:0.672449 7:0.106615 8:-0.661222 9:0.541164 10:-0.505248 11:0.0970616 12:-0.434212 13:0.316429 14:-0.326305 15:0.0622835 16:-0.417816 17:0.183536 18:-0.162992 19:-0.33896 20:0.238537 21:-0.0329113 22:0.289812 23:-0.486687 24:0.347004 25:0.0674484 26:-0.654903 27:0.501473 28:-0.464099 29:0.036657 30:-0.613665 31:0.28939 32:-0.335975 33:-0.00496828 34:-0.0886682 35:0.206066 36:-0.187326 
1024 1:-0.210449 2:-0.0235905 3:-0.0036798 4:0.00995418 5:-0.403193 6:0.0894542 7:-0.0684684 8:-0.129791 9:-0.0918439 10:-0.466629 11:-0.0564383 12:0.0825991 13:-0.131746 14:-0.371145 15:-0.0554975 16:-0.126114 17:-0.162902 18:-0.358142 19:-0.298103 20:-0.0512774 21:-0.120648 22:-0.0244644 23:-0.483755 24:-0.208113 25:-0.0654861 26:-0.0301873 27:-0.11595 28:-0.465531 29:-0.10011 30:0.181858 31:-0.240328 32:-0.386276 33:-0.102092 34:0.140772 35:-0.197175 36:-0.415108 
-1024 1:-0.493222 2:-0.491644 3:-0.325153 4:-0.210236 5:-0.746363 6:-0.518455 7:-0.360273 8:-0.0297305 9:-0.639835 10:-0.758519 11:-0.334088 12:0.372136 13:-0.667415 14:-0.712447 15:-0.334091 16:0.379862 17:-0.689097 18:-0.69476 19:-0.49642 20:-0.376521 21:-0.332012 22:0.0446383 23:-0.771642 24:-0.458012 25:-0.253976 26:0.205621 27:-0.530979 28:-0.692838 29:-0.272556 30:0.221634 31:-0.562321 32:-0.699185 33:-0.254716 34:0.23028 35:-0.562533 36:-0.717893 
-487.1604386458412 1:-0.285318 2:0.13319 3:0.0773002 4:0.533311 5:-0.673177 6:0.618646 7:0.0549891 8:-0.589653 9:0.359413 10:-0.547312 11:0.00902489 12:0.0523719 13:0.0606919 14:-0.212827 15:0.0328383 16:-0.959829 17:0.235382 18:-0.408084 19:-0.391753 20:0.122168 21:-0.0787737 22:0.34249 23:-0.612232 24:0.258116 25:-0.0456448 26:-0.46351 27:0.253108 28:-0.516028 29:-0.0961456 30:-0.108899 31:0.039368 32:-0.283837 33:-0.0901991 34:-0.325604 35:0.153594 36:-0.411686 
-1024 1:-0.251915 2:0.0879085 3:0.0134959 4:-0.326799 5:0.0366721 6:-0.046406 7:-0.0954023 8:0.387778 9:-0.177028 10:-0.0639116 11:-0.0496663 12:0.126524 13:0.00990219 14:-0.210741 15:-0.0487025 16:0.0859424 17:-0.0669991 18:-0.139998 19:-0.32886 20:0.024803 21:-0.0927318 22:-0.395775 23:-0.0961013 24:-0.385439 25:-0.180565 26:0.650885 27:-0.228818 28:0.0955428 29:-0.117949 30:0.280059 31:-0.165308 32:-0.252125 33:-0.117949 34:0.207292 35:-0.11057 36:-0.287604 
-1024 1:-0.357883 2:-0.0155869 3:-0.138651 4:-0.270424 5:-0.181586 6:-0.113368 7:-0.21437 8:0.567191 9:-0.432183 10:-0.0952322 11:-0.18059 12:0.280656 13:-0.154659 14:-0.263848 15:-0.177806 16:0.244664 17:-0.219218 18:-0.225961 19:-0.476221 20:0.0732215 21:-0.238293 22:-0.486739 23:0.0282373 24:-0.4294 25:-0.261913 26:0.382475 27:-0.105852 28:-0.0726622 29:-0.252734 30:0.229944 31:-0.0873026 32:-0.218349 33:-0.252734 34:0.223691 35:-0.0646098 36:-0.247086 
1024 1:-0.885976 2:-1 3:-0.916563 4:-0.553096 5:-0.917246 6:-0.965298 7:-0.881032 8:-0.165108 9:-0.897033 10:-0.999244 11:-0.873588 12:0.352036 13:-0.93136 14:-0.990566 15:-0.870894 16:0.356149 17:-0.928399 18:-0.98716 19:-0.8756 20:-1 21:-0.858425 22:-0.186772 23:-0.987027 24:-0.984852 25:-0.837302 26:0.441845 27:-0.946304 28:-1 29:-0.843409 30:0.522372 31:-0.954526 32:-1 33:-0.835481 34:0.494595 35:-0.951776 36:-1 
-1024 1:-0.440815 2:-0.474532 3:-0.352147 4:0.0109767 5:-0.838157 6:-0.326615 7:-0.333336 8:-0.203491 9:-0.520264 10:-0.78588 11:-0.329573 12:0.203896 13:-0.591781 14:-0.728895 15:-0.336356 16:0.150065 17:-0.614741 18:-0.709645 19:-0.519833 20:-0.453505 21:-0.415759 22:0.21299 23:-0.885585 24:-0.374137 25:-0.363101 26:0.105417 27:-0.501623 28:-0.750194 29:-0.373644 30:0.0853612 31:-0.549597 32:-0.757579 33:-0.375626 34:0.122419 35:-0.541583 36:-0.766344 
1024 1:-0.5105 2:-0.545946 3:-0.408587 4:-0.319754 5:-0.680897 6:-0.571545 7:-0.438834 8:0.00314091 9:-0.67129 10:-0.759121 11:-0.415353 12:0.282865 13:-0.670063 14:-0.764661 15:-0.408836 16:0.351127 17:-0.706077 18:-0.729147 19:-0.557018 20:-0.536284 21:-0.447663 22:-0.122408 23:-0.764373 24:-0.663647 25:-0.440482 26:0.229747 27:-0.613268 28:-0.776216 29:-0.448966 30:0.174535 31:-0.631762 32:-0.801577 33:-0.448966 34:0.355041 35:-0.669994 36:-0.773039 
-786.2348604303301 1:-0.439087 2:-0.169447 3:-0.217177 4:-0.721209 5:0.119743 6:-0.523216 7:-0.317624 8:0.185463 9:-0.351806 10:-0.379629 11:-0.252823 12:-0.0439252 13:-0.18329 14:-0.520748 15:-0.277465 16:0.256101 17:-0.333838 18:-0.355945 19:-0.480353 20:-0.347191 21:-0.264215 22:-0.496789 23:-0.405246 24:-0.768248 25:-0.331357 26:0.473973 27:-0.543532 28:-0.499206 29:-0.298324 30:0.371812 31:-0.530154 32:-0.599956 33:-0.312199 34:0.52153 35:-0.564912 36:-0.563643 
-785.4822199020422 1:-0.638924 2:-0.13906 3:-0.472392 4:-0.5152 5:-0.0123719 6:-0.320582 7:-0.50393 8:-0.112338 9:-0.0785504 10:-0.454952 11:-0.455983 12:0.0321891 13:-0.11877 14:-0.454279 15:-0.449604 16:-0.173287 17:-0.16277 18:-0.453132 19:-0.690147 20:-0.247536 21:-0.533404 22:-0.366081 23:-0.37234 24:-0.606487 25:-0.509927 26:0.0839669 27:-0.23809 28:-0.57231 29:-0.526268 30:0.350024 31:-0.417659 32:-0.525188 33:-0.524286 34:0.231706 35:-0.34991 36:-0.562856 
-1024 1:-0.342909 2:-0.439103 3:-0.271165 4:-0.427533 5:-0.503382 6:-0.569694 7:-0.324358 8:0.0703461 9:-0.609515 10:-0.672606 11:-0.302485 12:0.364442 13:-0.605474 14:-0.655237 15:-0.27067 16:0.13961 17:-0.595112 18:-0.688599 19:-0.364209 20:-0.444993 21:-0.278173 22:-0.120377 23:-0.744721 24:-0.652935 25:-0.259929 26:0.511864 27:-0.690218 28:-0.641079 29:-0.254716 30:0.532958 31:-0.687613 32:-0.689312 33:-0.24877 34:0.471616 35:-0.675873 36:-0.706641 
781.6277386701823 1:-0.498406 2:-0.749966 3:-0.430673 4:-0.364757 5:-0.866312 6:-0.799022 7:-0.432102 8:0.0936573 9:-0.900581 10:-0.885538 11:-0.401809 12:0.530004 13:-0.898896 14:-0.875979 15:-0.397511 16:0.672562 17:-0.91296 18:-0.858551 19:-0.484485 20:-0.61047 21:-0.367902 22:0.0706653 23:-0.921096 24:-0.670744 25:-0.269849 26:0.529045 27:-0.832629 28:-0.801971 29:-0.280484 30:0.535033 31:-0.821784 32:-0.834446 33:-0.286431 34:0.58146 35:-0.833626 36:-0.825129 
-1024 1:-0.229455 2:-0.424799 3:-0.158283 4:-0.301049 5:-0.679123 6:-0.585476 7:-0.216615 8:0.339175 9:-0.742001 10:-0.606762 11:-0.130929 12:0.492634 13:-0.706737 14:-0.686107 15:-0.127976 16:0.46407 17:-0.709389 18:-0.677776 19:-0.271476 20:-0.177366 21:-0.10669 22:-0.279778 23:-0.514302 24:-0.60617 25:-0.138899 26:0.6204 27:-0.551454 28:-0.3708 29:-0.0842526 30:0.373338 31:-0.518641 32:-0.572047 33:-0.0961456 34:0.313114 35:-0.489553 36:-0.593184 
1024 1:-0.53872 2:-0.320366 3:-0.391409 4:-0.0465508 5:-0.660441 6:-0.154332 7:-0.441079 8:0.0307133 9:-0.404839 10:-0.547471 11:-0.442439 12:0.305315 13:-0.388268 14:-0.493949 15:-0.438279 16:0.401421 17:-0.45921 18:-0.429068 19:-0.623124 20:-0.293542 21:-0.471591 22:-0.137126 23:-0.526586 24:-0.397992 25:-0.484133 26:0.150772 27:-0.283285 28:-0.544051 29:-0.482663 30:0.371891 31:-0.393792 32:-0.480161 33:-0.484645 34:0.402396 35:-0.393942 36:-0.477907 
-1024 1:-0.53584 2:-0.326362 3:-0.37178 4:-0.0349187 5:-0.674582 6:-0.162139 7:-0.398432 8:-0.206274 9:-0.303941 10:-0.66568 11:-0.404066 12:0.25561 13:-0.410539 14:-0.544528 15:-0.399776 16:0.0719236 17:-0.417001 18:-0.555712 19:-0.616697 20:-0.345073 21:-0.473585 22:-0.0199986 23:-0.686426 24:-0.401799 25:-0.438498 26:0.0200543 27:-0.329821 28:-0.684166 29:-0.478698 30:0.389766 31:-0.477317 32:-0.55547 33:-0.468787 34:0.279694 35:-0.448834 36:-0.612197 
-1024 1:-0.416626 2:-0.291489 3:-0.261349 4:-0.153098 5:-0.550599 6:-0.247443 7:-0.328847 8:0.0729013 9:-0.455733 10:-0.555183 11:-0.316029 12:0.368976 13:-0.45174 14:-0.502473 15:-0.30238 16:0.158207 17:-0.443297 18:-0.52779 19:-0.479894 20:-0.234943 21:-0.314066 22:-0.139098 23:-0.541582 24:-0.436436 25:-0.295643 26:0.094222 27:-0.316734 28:-0.583608 29:-0.326074 30:0.363424 31:-0.418019 32:-0.490418 33:-0.320128 34:0.225466 35:-0.362787 36:-0.543917 
-1024 1:-0.518563 2:-0.787993 3:-0.575458 4:-0.504675 5:-0.808693 6:-0.862315 7:-0.622896 8:0.139894 9:-0.893432 10:-0.842529 11:-0.591424 12:0.446982 13:-0.865489 14:-0.878715 15:-0.601361 16:0.546773 17:-0.877124 18:-0.856122 19:-0.53131 20:-0.750251 21:-0.513464 22:-0.243841 23:-0.856404 24:-0.901462 25:-0.537702 26:0.66785 27:-0.911354 28:-0.819994 29:-0.552036 30:0.676554 31:-0.889203 32:-0.867908 33:-0.540143 34:0.727802 35:-0.909477 36:-0.854173 
1024 1:0.0193382 2:0.0666923 3:0.283435 4:-0.221009 5:-0.281892 6:-0.183832 7:0.167221 8:0.757407 9:-0.538619 10:-0.097856 11:0.216699 12:0.617925 13:-0.342578 14:-0.209799 15:0.245748 16:0.332863 17:-0.313274 18:-0.263696 19:-0.0897005 20:0.160947 21:0.130594 22:-0.389509 23:-0.146028 24:-0.410336 25:0.0595119 26:0.826325 27:-0.321968 28:0.163802 29:0.0663894 30:0.511203 31:-0.168029 32:-0.0959787 33:0.127834 34:0.166083 35:-0.0760419 36:-0.258902 
-640.4825260368751 1:-0.509924 2:-0.367823 3:-0.325153 4:-0.0730407 5:-0.729477 6:-0.310469 7:-0.34456 8:-0.0833422 9:-0.473094 10:-0.681955 11:-0.309257 12:0.209217 13:-0.518871 14:-0.660959 15:-0.31144 16:0.27899 17:-0.571968 18:-0.608324 19:-0.525342 20:-0.283257 21:-0.35195 22:0.0336259 23:-0.715471 24:-0.385639 25:-0.293659 26:0.127011 27:-0.392352 28:-0.626616 29:-0.308235 30:0.0983583 31:-0.440069 32:-0.646669 33:-0.318145 34:0.315248 35:-0.473418 36:-0.594467 
868.4864809817874 1:-0.713212 2:-0.722039 3:-0.680981 4:-0.365367 5:-0.79829 6:-0.680055 7:-0.658811 8:-0.290799 9:-0.512147 10:-0.85826 11:-0.636569 12:0.054275 13:-0.645294 14:-0.8807 15:-0.633069 16:-0.0297721 17:-0.672926 18:-0.870462 19:-0.668113 20:-0.759342 21:-0.647063 22:-0.114135 23:-0.901153 24:-0.808077 25:-0.621036 26:0.373856 27:-0.750129 28:-0.832826 29:-0.631322 30:0.398715 31:-0.798259 32:-0.88395 33:-0.627358 34:0.365454 35:-0.790835 36:-0.895017 
-403.7852877065424 1:0.38212 2:0.690543 3:0.6319 4:-0.186774 5:0.589822 6:0.543025 7:0.470248 8:0.795137 9:0.128581 10:0.577639 11:0.51015 12:-0.0710745 13:0.69035 14:0.311333 15:0.497161 16:0.190553 17:0.464328 18:0.566436 19:0.104922 20:0.640554 21:0.365886 22:-0.492202 23:0.471209 24:-0.0335954 25:0.327365 26:0.455996 27:0.329219 28:0.582256 29:0.322084 30:0.261466 31:0.414331 32:0.404661 33:0.310191 34:0.460939 35:0.380168 36:0.478278 
1024 1:-0.418354 2:-0.544829 3:-0.266257 4:-0.111795 5:-0.862806 6:-0.555463 7:-0.31089 8:0.098233 9:-0.763746 10:-0.775089 11:-0.302485 12:0.672317 13:-0.802575 14:-0.702638 15:-0.29785 16:0.692568 17:-0.795746 18:-0.696903 19:-0.473926 20:-0.382249 21:-0.282162 22:0.18632 23:-0.858024 24:-0.406647 25:-0.259929 26:0.339115 27:-0.597383 28:-0.664269 29:-0.278502 30:0.568394 31:-0.651155 32:-0.633569 33:-0.284449 34:0.451224 35:-0.615929 36:-0.657021 
1024 1:-0.620496 2:-0.983587 3:-0.639262 4:-0.520041 5:-0.968328 6:-1 7:-0.694726 8:0.0891994 9:-1 10:-0.967888 11:-0.623025 12:0.534127 13:-1 14:-0.983085 15:-0.639864 16:0.665307 17:-1 18:-0.975096 19:-0.656177 20:-0.919887 21:-0.631111 22:-0.230428 23:-0.959561 24:-1 25:-0.658734 26:0.692938 27:-0.999306 28:-0.93262 29:-0.639251 30:0.716767 31:-0.986724 32:-0.968393 33:-0.64718 34:0.742388 35:-0.996575 36:-0.957423 
1024 1:-0.51338 2:-0.675502 3:-0.53865 4:-0.553401 5:-0.645012 6:-0.79369 7:-0.602696 8:0.219907 9:-0.8323 10:-0.731748 11:-0.591424 12:0.18457 13:-0.670953 14:-0.831664 15:-0.610419 16:0.80239 17:-0.821945 18:-0.674205 19:-0.532687 20:-0.546712 21:-0.507482 22:-0.370372 23:-0.590842 24:-0.791531 25:-0.529766 26:0.57531 27:-0.723996 28:-0.640006 29:-0.518339 30:0.519154 31:-0.710927 32:-0.736531 33:-0.565911 34:0.881367 35:-0.783246 36:-0.599685 
-1024 1:-0.894614 2:-0.646307 3:-0.830673 4:-0.575806 5:-0.569989 6:-0.758357 7:-0.842872 8:-0.00318022 9:-0.680833 10:-0.75609 11:-0.826184 12:0.403151 13:-0.694673 14:-0.762359 15:-0.823328 16:0.315217 17:-0.664091 18:-0.756167 19:-0.896716 20:-0.744006 21:-0.832502 22:-0.343721 23:-0.70214 24:-0.880381 25:-0.815478 26:0.361347 27:-0.667329 28:-0.80678 29:-0.837463 30:0.493507 31:-0.733118 32:-0.819084 33:-0.839445 34:0.526109 35:-0.743838 36:-0.802072 
-1024 1:-0.694785 2:-0.952292 3:-0.715337 4:-0.587156 5:-0.893326 6:-0.983457 7:-0.755332 8:0.00552312 9:-0.954582 10:-0.959088 11:-0.731377 12:0.476434 13:-0.961945 14:-0.964126 15:-0.73273 16:0.611212 17:-0.97111 18:-0.951094 19:-0.676834 20:-0.887847 21:-0.663013 22:-0.226481 23:-0.935585 24:-0.968106 25:-0.682542 26:0.675571 27:-0.975573 28:-0.9049 29:-0.670964 30:0.740507 31:-0.968966 32:-0.941635 33:-0.674928 34:0.751914 35:-0.978818 36:-0.930905 
1024 1:-0.406836 2:-0.790072 3:-0.435581 4:-0.362599 5:-0.914057 6:-0.847493 7:-0.50393 8:0.0700474 9:-0.895862 10:-0.890089 11:-0.46727 12:0.590505 13:-0.921892 14:-0.878356 15:-0.454134 16:0.581923 17:-0.913301 18:-0.886106 19:-0.454645 20:-0.674594 21:-0.409777 22:-0.0919031 23:-0.898218 24:-0.811206 25:-0.420641 26:0.695299 27:-0.898659 28:-0.786622 29:-0.423198 30:0.934118 31:-0.912723 32:-0.801251 33:-0.401394 34:0.756984 35:-0.902112 36:-0.833101 
-1024 1:-0.164953 2:-0.438421 3:-0.0503061 4:-0.234765 5:-0.747187 6:-0.593101 7:-0.122339 8:0.471392 9:-0.825486 10:-0.613759 11:-0.0925537 12:0.836952 13:-0.788474 14:-0.605575 15:-0.0804105 16:0.631361 17:-0.742868 18:-0.653265 19:-0.190225 20:-0.218605 21:-0.110678 22:-0.0605336 23:-0.663167 24:-0.488548 25:-0.119058 26:0.734554 27:-0.584383 28:-0.308951 29:-0.129842 30:0.768004 31:-0.579522 32:-0.442629 33:-0.102092 34:0.178139 35:-0.428113 36:-0.608758 
1024 1:-0.463275 2:-0.7358 3:-0.438036 4:-0.342442 5:-0.866872 6:-0.777244 7:-0.488217 8:0.111811 9:-0.881521 10:-0.857444 11:-0.440181 12:0.609196 13:-0.900095 14:-0.845827 15:-0.440544 16:0.552349 17:-0.88211 18:-0.857175 19:-0.535441 20:-0.637259 21:-0.463615 22:-0.0979082 23:-0.854121 24:-0.749137 25:-0.480165 26:0.528836 27:-0.812582 28:-0.783772 29:-0.474734 30:0.674502 31:-0.831567 32:-0.800083 33:-0.443019 34:0.500713 35:-0.813067 36:-0.842973 
1024 1:-0.463851 2:-0.787641 3:-0.418403 4:-0.388818 5:-0.901838 6:-0.858197 7:-0.481483 8:0.217595 9:-0.954494 10:-0.875072 11:-0.422125 12:0.629109 13:-0.942315 14:-0.888357 15:-0.422426 16:0.773402 17:-0.946578 18:-0.874507 19:-0.455563 20:-0.651784 21:-0.36192 22:-0.0979355 23:-0.881424 24:-0.798037 25:-0.386911 26:0.7491 27:-0.900279 28:-0.754554 29:-0.359769 30:0.726602 31:-0.869467 32:-0.822922 33:-0.363733 34:0.683336 35:-0.871189 36:-0.826429 
1024 1:-0.308354 2:-0.861436 3:-0.354601 4:-0.365429 5:-0.965678 6:-0.918151 7:-0.380475 8:0.128258 9:-0.971899 10:-0.937849 11:-0.345375 12:0.618383 13:-0.976703 14:-0.934199 15:-0.340886 16:0.797274 17:-0.981828 18:-0.92252 19:-0.315088 20:-0.691429 21:-0.196419 22:-0.00290315 23:-0.958654 24:-0.845218 25:-0.206357 26:0.725928 27:-0.942585 28:-0.839442 29:-0.224984 30:0.910321 31:-0.942214 32:-0.855558 33:-0.215073 34:0.815592 35:-0.939396 36:-0.860943 
1024 1:-0.483432 2:-0.454458 3:-0.273619 4:-0.197733 5:-0.710214 6:-0.474706 7:-0.326602 8:-0.128455 9:-0.553163 10:-0.761397 11:-0.270882 12:0.170355 13:-0.603656 14:-0.750582 15:-0.268405 16:0.221616 17:-0.650696 18:-0.712618 19:-0.522129 20:-0.373598 21:-0.314066 22:-0.0336999 23:-0.731081 24:-0.516739 25:-0.291675 26:0.00930414 27:-0.432887 28:-0.745664 29:-0.302288 30:0.10087 31:-0.527278 32:-0.722489 33:-0.30427 34:0.162118 35:-0.522576 36:-0.721857 
602.3019530942735 1:-0.572122 2:-0.861632 3:-0.59509 4:-0.361317 5:-0.941261 6:-0.855579 7:-0.602696 8:-0.0176701 9:-0.910133 10:-0.938777 11:-0.575622 12:0.548742 13:-0.940134 14:-0.914272 15:-0.578711 16:0.539724 17:-0.92669 18:-0.915966 19:-0.556099 20:-0.804479 21:-0.53141 22:-0.00953168 23:-0.971708 24:-0.834193 25:-0.523813 26:0.502829 27:-0.90204 28:-0.904548 29:-0.514375 30:0.657815 31:-0.920716 32:-0.908568 33:-0.538161 34:0.566695 35:-0.903557 36:-0.912376 
1024 1:-0.461548 2:-0.31048 3:-0.322699 4:-0.264001 5:-0.471214 6:-0.31899 7:-0.389453 8:0.0859917 9:-0.448567 10:-0.536143 11:-0.381492 12:0.323453 13:-0.410697 14:-0.497243 15:-0.374861 16:0.0838673 17:-0.40099 18:-0.530103 19:-0.520292 20:-0.269338 21:-0.36192 22:-0.277264 23:-0.44309 24:-0.534843 25:-0.363101 26:0.155329 27:-0.329159 28:-0.556283 29:-0.407341 30:0.674535 31:-0.49991 32:-0.403946 33:-0.377608 34:0.241893 35:-0.380865 36:-0.558545 
